digraph Tree {
node [shape=box, style="filled, rounded", color="black", fontname=helvetica] ;
edge [fontname=helvetica] ;
0 [label=<X<SUB>16</SUB> &le; 0.5<br/>gini = 0.219<br/>samples = 30773<br/>value = [[29862, 911]<br/>[24795, 5978]<br/>[28816, 1957]<br/>[18969, 11804]<br/>[28538, 2235]<br/>[28221, 2552]<br/>[25437, 5336]]>, fillcolor="#e5813918"] ;
1 [label=<X<SUB>14</SUB> &le; 0.5<br/>gini = 0.216<br/>samples = 22228<br/>value = [[21654, 574]<br/>[17791, 4437]<br/>[20897, 1331]<br/>[13315, 8913]<br/>[20801, 1427]<br/>[20478, 1750]<br/>[18432, 3796]]>, fillcolor="#e581391c"] ;
0 -> 1 [labeldistance=2.5, labelangle=45, headlabel="True"] ;
2 [label=<X<SUB>18</SUB> &le; 0.5<br/>gini = 0.218<br/>samples = 16176<br/>value = [[15768, 408]<br/>[13161, 3015]<br/>[15185, 991]<br/>[9807, 6369]<br/>[15031, 1145]<br/>[14817, 1359]<br/>[13287, 2889]]>, fillcolor="#e581391a"] ;
1 -> 2 ;
3 [label=<X<SUB>20</SUB> &le; 0.5<br/>gini = 0.22<br/>samples = 12508<br/>value = [[12186, 322]<br/>[10292, 2216]<br/>[11695, 813]<br/>[7691, 4817]<br/>[11577, 931]<br/>[11383, 1125]<br/>[10224, 2284]]>, fillcolor="#e5813918"] ;
2 -> 3 ;
4 [label=<X<SUB>33</SUB> &le; 0.5<br/>gini = 0.219<br/>samples = 12231<br/>value = [[11924, 307]<br/>[10081, 2150]<br/>[11436, 795]<br/>[7495, 4736]<br/>[11328, 903]<br/>[11129, 1102]<br/>[9993, 2238]]>, fillcolor="#e5813918"] ;
3 -> 4 ;
5 [label=<X<SUB>5</SUB> &le; 0.5<br/>gini = 0.219<br/>samples = 12033<br/>value = [[11728, 305]<br/>[9927, 2106]<br/>[11253, 780]<br/>[7351, 4682]<br/>[11149, 884]<br/>[10948, 1085]<br/>[9842, 2191]]>, fillcolor="#e5813918"] ;
4 -> 5 ;
6 [label=<X<SUB>19</SUB> &le; 0.5<br/>gini = 0.22<br/>samples = 6607<br/>value = [[6434, 173]<br/>[5526, 1081]<br/>[6173, 434]<br/>[4058, 2549]<br/>[6130, 477]<br/>[5961, 646]<br/>[5360, 1247]]>, fillcolor="#e5813918"] ;
5 -> 6 ;
7 [label=<X<SUB>32</SUB> &le; 0.5<br/>gini = 0.22<br/>samples = 6455<br/>value = [[6288, 167]<br/>[5403, 1052]<br/>[6028, 427]<br/>[3980, 2475]<br/>[5985, 470]<br/>[5817, 638]<br/>[5229, 1226]]>, fillcolor="#e5813917"] ;
6 -> 7 ;
8 [label=<X<SUB>8</SUB> &le; 0.5<br/>gini = 0.219<br/>samples = 5439<br/>value = [[5303, 136]<br/>[4576, 863]<br/>[5075, 364]<br/>[3321, 2118]<br/>[5046, 393]<br/>[4915, 524]<br/>[4398, 1041]]>, fillcolor="#e5813918"] ;
7 -> 8 ;
9 [label=<X<SUB>28</SUB> &le; 0.5<br/>gini = 0.219<br/>samples = 4192<br/>value = [[4090, 102]<br/>[3501, 691]<br/>[3909, 283]<br/>[2546, 1646]<br/>[3891, 301]<br/>[3806, 386]<br/>[3409, 783]]>, fillcolor="#e5813919"] ;
8 -> 9 ;
10 [label=<X<SUB>1</SUB> &le; 0.5<br/>gini = 0.218<br/>samples = 3671<br/>value = [[3583, 88]<br/>[3068, 603]<br/>[3430, 241]<br/>[2208, 1463]<br/>[3406, 265]<br/>[3329, 342]<br/>[3002, 669]]>, fillcolor="#e581391a"] ;
9 -> 10 ;
11 [label=<X<SUB>2</SUB> &le; 0.5<br/>gini = 0.218<br/>samples = 2490<br/>value = [[2436, 54]<br/>[2109, 381]<br/>[2324, 166]<br/>[1492, 998]<br/>[2293, 197]<br/>[2248, 242]<br/>[2038, 452]]>, fillcolor="#e581391a"] ;
10 -> 11 ;
12 [label=<X<SUB>30</SUB> &le; 0.5<br/>gini = 0.218<br/>samples = 2412<br/>value = [[2359, 53]<br/>[2041, 371]<br/>[2248, 164]<br/>[1454, 958]<br/>[2218, 194]<br/>[2180, 232]<br/>[1972, 440]]>, fillcolor="#e5813919"] ;
11 -> 12 ;
13 [label=<X<SUB>21</SUB> &le; 0.5<br/>gini = 0.217<br/>samples = 2181<br/>value = [[2139, 42]<br/>[1851, 330]<br/>[2030, 151]<br/>[1301, 880]<br/>[2009, 172]<br/>[1975, 206]<br/>[1781, 400]]>, fillcolor="#e581391a"] ;
12 -> 13 ;
14 [label=<X<SUB>9</SUB> &le; 0.5<br/>gini = 0.217<br/>samples = 2111<br/>value = [[2070, 41]<br/>[1800, 311]<br/>[1967, 144]<br/>[1255, 856]<br/>[1946, 165]<br/>[1908, 203]<br/>[1720, 391]]>, fillcolor="#e581391b"] ;
13 -> 14 ;
15 [label=<X<SUB>26</SUB> &le; 0.5<br/>gini = 0.217<br/>samples = 1810<br/>value = [[1779, 31]<br/>[1542, 268]<br/>[1695, 115]<br/>[1084, 726]<br/>[1666, 144]<br/>[1629, 181]<br/>[1465, 345]]>, fillcolor="#e581391a"] ;
14 -> 15 ;
16 [label=<X<SUB>10</SUB> &le; 0.5<br/>gini = 0.217<br/>samples = 647<br/>value = [[635, 12]<br/>[555, 92]<br/>[596, 51]<br/>[382, 265]<br/>[599, 48]<br/>[576, 71]<br/>[539, 108]]>, fillcolor="#e581391a"] ;
15 -> 16 ;
17 [label=<X<SUB>11</SUB> &le; 0.5<br/>gini = 0.217<br/>samples = 645<br/>value = [[633, 12]<br/>[553, 92]<br/>[594, 51]<br/>[380, 265]<br/>[597, 48]<br/>[576, 69]<br/>[537, 108]]>, fillcolor="#e581391a"] ;
16 -> 17 ;
18 [label=<X<SUB>12</SUB> &le; 0.5<br/>gini = 0.217<br/>samples = 570<br/>value = [[559, 11]<br/>[492, 78]<br/>[525, 45]<br/>[337, 233]<br/>[532, 38]<br/>[507, 63]<br/>[468, 102]]>, fillcolor="#e581391b"] ;
17 -> 18 ;
19 [label=<X<SUB>24</SUB> &le; 0.5<br/>gini = 0.216<br/>samples = 567<br/>value = [[556, 11]<br/>[489, 78]<br/>[522, 45]<br/>[334, 233]<br/>[530, 37]<br/>[505, 62]<br/>[466, 101]]>, fillcolor="#e581391b"] ;
18 -> 19 ;
20 [label=<X<SUB>0</SUB> &le; 0.5<br/>gini = 0.217<br/>samples = 548<br/>value = [[537, 11]<br/>[473, 75]<br/>[504, 44]<br/>[326, 222]<br/>[513, 35]<br/>[486, 62]<br/>[449, 99]]>, fillcolor="#e581391a"] ;
19 -> 20 ;
21 [label=<X<SUB>31</SUB> &le; 0.5<br/>gini = 0.215<br/>samples = 204<br/>value = [[201, 3]<br/>[182, 22]<br/>[189, 15]<br/>[120, 84]<br/>[193, 11]<br/>[176, 28]<br/>[163, 41]]>, fillcolor="#e581391d"] ;
20 -> 21 ;
22 [label=<X<SUB>23</SUB> &le; 0.5<br/>gini = 0.221<br/>samples = 103<br/>value = [[103, 0]<br/>[95, 8]<br/>[94, 9]<br/>[66, 37]<br/>[94, 9]<br/>[86, 17]<br/>[80, 23]]>, fillcolor="#e5813916"] ;
21 -> 22 ;
23 [label=<X<SUB>6</SUB> &le; 0.5<br/>gini = 0.143<br/>samples = 6<br/>value = [[6, 0]<br/>[5, 1]<br/>[6, 0]<br/>[6, 0]<br/>[5, 1]<br/>[6, 0]<br/>[2, 4]]>, fillcolor="#e5813969"] ;
22 -> 23 ;
24 [label=<gini = 0.0<br/>samples = 4<br/>value = [[4, 0]<br/>[4, 0]<br/>[4, 0]<br/>[4, 0]<br/>[4, 0]<br/>[4, 0]<br/>[0, 4]]>, fillcolor="#e58139ff"] ;
23 -> 24 ;
25 [label=<X<SUB>7</SUB> &le; 0.5<br/>gini = 0.143<br/>samples = 2<br/>value = [[2, 0]<br/>[1, 1]<br/>[2, 0]<br/>[2, 0]<br/>[1, 1]<br/>[2, 0]<br/>[2, 0]]>, fillcolor="#e5813969"] ;
23 -> 25 ;
26 [label=<gini = 0.0<br/>samples = 1<br/>value = [[1, 0]<br/>[0, 1]<br/>[1, 0]<br/>[1, 0]<br/>[1, 0]<br/>[1, 0]<br/>[1, 0]]>, fillcolor="#e58139ff"] ;
25 -> 26 ;
27 [label=<gini = 0.0<br/>samples = 1<br/>value = [[1, 0]<br/>[1, 0]<br/>[1, 0]<br/>[1, 0]<br/>[0, 1]<br/>[1, 0]<br/>[1, 0]]>, fillcolor="#e58139ff"] ;
25 -> 27 ;
28 [label=<X<SUB>6</SUB> &le; 0.5<br/>gini = 0.219<br/>samples = 97<br/>value = [[97, 0]<br/>[90, 7]<br/>[88, 9]<br/>[60, 37]<br/>[89, 8]<br/>[80, 17]<br/>[78, 19]]>, fillcolor="#e5813919"] ;
22 -> 28 ;
29 [label=<X<SUB>15</SUB> &le; 0.5<br/>gini = 0.224<br/>samples = 65<br/>value = [[65, 0]<br/>[61, 4]<br/>[59, 6]<br/>[43, 22]<br/>[57, 8]<br/>[52, 13]<br/>[53, 12]]>, fillcolor="#e5813913"] ;
28 -> 29 ;
30 [label=<X<SUB>3</SUB> &le; 0.5<br/>gini = 0.217<br/>samples = 39<br/>value = [[39, 0]<br/>[36, 3]<br/>[36, 3]<br/>[24, 15]<br/>[34, 5]<br/>[30, 9]<br/>[35, 4]]>, fillcolor="#e581391a"] ;
29 -> 30 ;
31 [label=<X<SUB>7</SUB> &le; 0.5<br/>gini = 0.208<br/>samples = 11<br/>value = [[11, 0]<br/>[11, 0]<br/>[9, 2]<br/>[7, 4]<br/>[11, 0]<br/>[9, 2]<br/>[8, 3]]>, fillcolor="#e5813924"] ;
30 -> 31 ;
32 [label=<gini = 0.179<br/>samples = 4<br/>value = [[4, 0]<br/>[4, 0]<br/>[4, 0]<br/>[3, 1]<br/>[4, 0]<br/>[3, 1]<br/>[2, 2]]>, fillcolor="#e5813943"] ;
31 -> 32 ;
33 [label=<X<SUB>4</SUB> &le; 0.5<br/>gini = 0.198<br/>samples = 7<br/>value = [[7, 0]<br/>[7, 0]<br/>[5, 2]<br/>[4, 3]<br/>[7, 0]<br/>[6, 1]<br/>[6, 1]]>, fillcolor="#e581392e"] ;
31 -> 33 ;
34 [label=<gini = 0.179<br/>samples = 4<br/>value = [[4, 0]<br/>[4, 0]<br/>[3, 1]<br/>[2, 2]<br/>[4, 0]<br/>[4, 0]<br/>[3, 1]]>, fillcolor="#e5813943"] ;
33 -> 34 ;
35 [label=<gini = 0.19<br/>samples = 3<br/>value = [[3, 0]<br/>[3, 0]<br/>[2, 1]<br/>[2, 1]<br/>[3, 0]<br/>[2, 1]<br/>[3, 0]]>, fillcolor="#e5813936"] ;
33 -> 35 ;
36 [label=<X<SUB>7</SUB> &le; 0.5<br/>gini = 0.211<br/>samples = 28<br/>value = [[28, 0]<br/>[25, 3]<br/>[27, 1]<br/>[17, 11]<br/>[23, 5]<br/>[21, 7]<br/>[27, 1]]>, fillcolor="#e5813921"] ;
30 -> 36 ;
37 [label=<X<SUB>4</SUB> &le; 0.5<br/>gini = 0.213<br/>samples = 27<br/>value = [[27, 0]<br/>[24, 3]<br/>[26, 1]<br/>[17, 10]<br/>[22, 5]<br/>[20, 7]<br/>[26, 1]]>, fillcolor="#e581391e"] ;
36 -> 37 ;
38 [label=<gini = 0.216<br/>samples = 26<br/>value = [[26, 0]<br/>[23, 3]<br/>[25, 1]<br/>[17, 9]<br/>[21, 5]<br/>[19, 7]<br/>[25, 1]]>, fillcolor="#e581391c"] ;
37 -> 38 ;
39 [label=<gini = 0.0<br/>samples = 1<br/>value = [[1, 0]<br/>[1, 0]<br/>[1, 0]<br/>[0, 1]<br/>[1, 0]<br/>[1, 0]<br/>[1, 0]]>, fillcolor="#e58139ff"] ;
37 -> 39 ;
40 [label=<gini = 0.0<br/>samples = 1<br/>value = [[1, 0]<br/>[1, 0]<br/>[1, 0]<br/>[0, 1]<br/>[1, 0]<br/>[1, 0]<br/>[1, 0]]>, fillcolor="#e58139ff"] ;
36 -> 40 ;
41 [label=<X<SUB>7</SUB> &le; 0.5<br/>gini = 0.223<br/>samples = 26<br/>value = [[26, 0]<br/>[25, 1]<br/>[23, 3]<br/>[19, 7]<br/>[23, 3]<br/>[22, 4]<br/>[18, 8]]>, fillcolor="#e5813914"] ;
29 -> 41 ;
42 [label=<X<SUB>4</SUB> &le; 0.5<br/>gini = 0.23<br/>samples = 20<br/>value = [[20, 0]<br/>[19, 1]<br/>[17, 3]<br/>[15, 5]<br/>[17, 3]<br/>[17, 3]<br/>[15, 5]]>, fillcolor="#e581390d"] ;
41 -> 42 ;
43 [label=<gini = 0.203<br/>samples = 11<br/>value = [[11, 0]<br/>[11, 0]<br/>[10, 1]<br/>[7, 4]<br/>[10, 1]<br/>[10, 1]<br/>[7, 4]]>, fillcolor="#e5813929"] ;
42 -> 43 ;
44 [label=<X<SUB>3</SUB> &le; 0.5<br/>gini = 0.233<br/>samples = 9<br/>value = [[9, 0]<br/>[8, 1]<br/>[7, 2]<br/>[8, 1]<br/>[7, 2]<br/>[7, 2]<br/>[8, 1]]>, fillcolor="#e581390a"] ;
42 -> 44 ;
45 [label=<gini = 0.223<br/>samples = 8<br/>value = [[8, 0]<br/>[8, 0]<br/>[6, 2]<br/>[7, 1]<br/>[6, 2]<br/>[6, 2]<br/>[7, 1]]>, fillcolor="#e5813914"] ;
44 -> 45 ;
46 [label=<gini = 0.0<br/>samples = 1<br/>value = [[1, 0]<br/>[0, 1]<br/>[1, 0]<br/>[1, 0]<br/>[1, 0]<br/>[1, 0]<br/>[1, 0]]>, fillcolor="#e58139ff"] ;
44 -> 46 ;
47 [label=<gini = 0.175<br/>samples = 6<br/>value = [[6, 0]<br/>[6, 0]<br/>[6, 0]<br/>[4, 2]<br/>[6, 0]<br/>[5, 1]<br/>[3, 3]]>, fillcolor="#e5813947"] ;
41 -> 47 ;
48 [label=<X<SUB>3</SUB> &le; 0.5<br/>gini = 0.2<br/>samples = 32<br/>value = [[32, 0]<br/>[29, 3]<br/>[29, 3]<br/>[17, 15]<br/>[32, 0]<br/>[28, 4]<br/>[25, 7]]>, fillcolor="#e581392d"] ;
28 -> 48 ;
49 [label=<X<SUB>7</SUB> &le; 0.5<br/>gini = 0.186<br/>samples = 28<br/>value = [[28, 0]<br/>[26, 2]<br/>[26, 2]<br/>[13, 15]<br/>[28, 0]<br/>[24, 4]<br/>[23, 5]]>, fillcolor="#e581393b"] ;
48 -> 49 ;
50 [label=<X<SUB>15</SUB> &le; 0.5<br/>gini = 0.19<br/>samples = 27<br/>value = [[27, 0]<br/>[25, 2]<br/>[25, 2]<br/>[13, 14]<br/>[27, 0]<br/>[23, 4]<br/>[22, 5]]>, fillcolor="#e5813937"] ;
49 -> 50 ;
51 [label=<gini = 0.176<br/>samples = 9<br/>value = [[9, 0]<br/>[8, 1]<br/>[9, 0]<br/>[4, 5]<br/>[9, 0]<br/>[8, 1]<br/>[7, 2]]>, fillcolor="#e5813945"] ;
50 -> 51 ;
52 [label=<gini = 0.194<br/>samples = 18<br/>value = [[18, 0]<br/>[17, 1]<br/>[16, 2]<br/>[9, 9]<br/>[18, 0]<br/>[15, 3]<br/>[15, 3]]>, fillcolor="#e5813933"] ;
50 -> 52 ;
53 [label=<gini = 0.0<br/>samples = 1<br/>value = [[1, 0]<br/>[1, 0]<br/>[1, 0]<br/>[0, 1]<br/>[1, 0]<br/>[1, 0]<br/>[1, 0]]>, fillcolor="#e58139ff"] ;
49 -> 53 ;
54 [label=<X<SUB>13</SUB> &le; 0.5<br/>gini = 0.179<br/>samples = 4<br/>value = [[4, 0]<br/>[3, 1]<br/>[3, 1]<br/>[4, 0]<br/>[4, 0]<br/>[4, 0]<br/>[2, 2]]>, fillcolor="#e5813943"] ;
48 -> 54 ;
55 [label=<gini = 0.0<br/>samples = 1<br/>value = [[1, 0]<br/>[1, 0]<br/>[1, 0]<br/>[1, 0]<br/>[1, 0]<br/>[1, 0]<br/>[0, 1]]>, fillcolor="#e58139ff"] ;
54 -> 55 ;
56 [label=<gini = 0.19<br/>samples = 3<br/>value = [[3, 0]<br/>[2, 1]<br/>[2, 1]<br/>[3, 0]<br/>[3, 0]<br/>[3, 0]<br/>[2, 1]]>, fillcolor="#e5813936"] ;
54 -> 56 ;
57 [label=<X<SUB>22</SUB> &le; 0.5<br/>gini = 0.205<br/>samples = 101<br/>value = [[98, 3]<br/>[87, 14]<br/>[95, 6]<br/>[54, 47]<br/>[99, 2]<br/>[90, 11]<br/>[83, 18]]>, fillcolor="#e5813928"] ;
21 -> 57 ;
58 [label=<X<SUB>4</SUB> &le; 0.5<br/>gini = 0.211<br/>samples = 87<br/>value = [[84, 3]<br/>[73, 14]<br/>[82, 5]<br/>[50, 37]<br/>[85, 2]<br/>[78, 9]<br/>[70, 17]]>, fillcolor="#e5813920"] ;
57 -> 58 ;
59 [label=<X<SUB>15</SUB> &le; 0.5<br/>gini = 0.217<br/>samples = 63<br/>value = [[60, 3]<br/>[53, 10]<br/>[60, 3]<br/>[39, 24]<br/>[62, 1]<br/>[55, 8]<br/>[49, 14]]>, fillcolor="#e581391a"] ;
58 -> 59 ;
60 [label=<X<SUB>3</SUB> &le; 0.5<br/>gini = 0.221<br/>samples = 35<br/>value = [[32, 3]<br/>[30, 5]<br/>[34, 1]<br/>[23, 12]<br/>[34, 1]<br/>[31, 4]<br/>[26, 9]]>, fillcolor="#e5813916"] ;
59 -> 60 ;
61 [label=<X<SUB>7</SUB> &le; 0.5<br/>gini = 0.175<br/>samples = 11<br/>value = [[10, 1]<br/>[10, 1]<br/>[11, 0]<br/>[5, 6]<br/>[11, 0]<br/>[11, 0]<br/>[8, 3]]>, fillcolor="#e5813947"] ;
60 -> 61 ;
62 [label=<gini = 0.152<br/>samples = 8<br/>value = [[7, 1]<br/>[8, 0]<br/>[8, 0]<br/>[3, 5]<br/>[8, 0]<br/>[8, 0]<br/>[6, 2]]>, fillcolor="#e581395f"] ;
61 -> 62 ;
63 [label=<gini = 0.19<br/>samples = 3<br/>value = [[3, 0]<br/>[2, 1]<br/>[3, 0]<br/>[2, 1]<br/>[3, 0]<br/>[3, 0]<br/>[2, 1]]>, fillcolor="#e5813936"] ;
61 -> 63 ;
64 [label=<X<SUB>6</SUB> &le; 0.5<br/>gini = 0.231<br/>samples = 24<br/>value = [[22, 2]<br/>[20, 4]<br/>[23, 1]<br/>[18, 6]<br/>[23, 1]<br/>[20, 4]<br/>[18, 6]]>, fillcolor="#e581390b"] ;
60 -> 64 ;
65 [label=<gini = 0.224<br/>samples = 21<br/>value = [[19, 2]<br/>[18, 3]<br/>[20, 1]<br/>[15, 6]<br/>[21, 0]<br/>[18, 3]<br/>[15, 6]]>, fillcolor="#e5813913"] ;
64 -> 65 ;
66 [label=<gini = 0.19<br/>samples = 3<br/>value = [[3, 0]<br/>[2, 1]<br/>[3, 0]<br/>[3, 0]<br/>[2, 1]<br/>[2, 1]<br/>[3, 0]]>, fillcolor="#e5813936"] ;
64 -> 66 ;
67 [label=<X<SUB>3</SUB> &le; 0.5<br/>gini = 0.208<br/>samples = 28<br/>value = [[28, 0]<br/>[23, 5]<br/>[26, 2]<br/>[16, 12]<br/>[28, 0]<br/>[24, 4]<br/>[23, 5]]>, fillcolor="#e5813924"] ;
59 -> 67 ;
68 [label=<X<SUB>6</SUB> &le; 0.5<br/>gini = 0.219<br/>samples = 20<br/>value = [[20, 0]<br/>[17, 3]<br/>[18, 2]<br/>[13, 7]<br/>[20, 0]<br/>[16, 4]<br/>[16, 4]]>, fillcolor="#e5813919"] ;
67 -> 68 ;
69 [label=<gini = 0.198<br/>samples = 7<br/>value = [[7, 0]<br/>[6, 1]<br/>[7, 0]<br/>[4, 3]<br/>[7, 0]<br/>[6, 1]<br/>[5, 2]]>, fillcolor="#e581392e"] ;
68 -> 69 ;
70 [label=<gini = 0.223<br/>samples = 13<br/>value = [[13, 0]<br/>[11, 2]<br/>[11, 2]<br/>[9, 4]<br/>[13, 0]<br/>[10, 3]<br/>[11, 2]]>, fillcolor="#e5813914"] ;
68 -> 70 ;
71 [label=<X<SUB>6</SUB> &le; 0.5<br/>gini = 0.152<br/>samples = 8<br/>value = [[8, 0]<br/>[6, 2]<br/>[8, 0]<br/>[3, 5]<br/>[8, 0]<br/>[8, 0]<br/>[7, 1]]>, fillcolor="#e581395f"] ;
67 -> 71 ;
72 [label=<gini = 0.143<br/>samples = 6<br/>value = [[6, 0]<br/>[5, 1]<br/>[6, 0]<br/>[2, 4]<br/>[6, 0]<br/>[6, 0]<br/>[5, 1]]>, fillcolor="#e5813969"] ;
71 -> 72 ;
73 [label=<gini = 0.143<br/>samples = 2<br/>value = [[2, 0]<br/>[1, 1]<br/>[2, 0]<br/>[1, 1]<br/>[2, 0]<br/>[2, 0]<br/>[2, 0]]>, fillcolor="#e5813969"] ;
71 -> 73 ;
74 [label=<X<SUB>7</SUB> &le; 0.5<br/>gini = 0.187<br/>samples = 24<br/>value = [[24, 0]<br/>[20, 4]<br/>[22, 2]<br/>[11, 13]<br/>[23, 1]<br/>[23, 1]<br/>[21, 3]]>, fillcolor="#e581393b"] ;
58 -> 74 ;
75 [label=<X<SUB>6</SUB> &le; 0.5<br/>gini = 0.131<br/>samples = 14<br/>value = [[14, 0]<br/>[13, 1]<br/>[12, 2]<br/>[4, 10]<br/>[14, 0]<br/>[14, 0]<br/>[13, 1]]>, fillcolor="#e5813975"] ;
74 -> 75 ;
76 [label=<X<SUB>3</SUB> &le; 0.5<br/>gini = 0.108<br/>samples = 13<br/>value = [[13, 0]<br/>[12, 1]<br/>[11, 2]<br/>[3, 10]<br/>[13, 0]<br/>[13, 0]<br/>[13, 0]]>, fillcolor="#e581398d"] ;
75 -> 76 ;
77 [label=<X<SUB>13</SUB> &le; 0.5<br/>gini = 0.131<br/>samples = 10<br/>value = [[10, 0]<br/>[9, 1]<br/>[8, 2]<br/>[3, 7]<br/>[10, 0]<br/>[10, 0]<br/>[10, 0]]>, fillcolor="#e5813975"] ;
76 -> 77 ;
78 [label=<gini = 0.128<br/>samples = 7<br/>value = [[7, 0]<br/>[6, 1]<br/>[6, 1]<br/>[2, 5]<br/>[7, 0]<br/>[7, 0]<br/>[7, 0]]>, fillcolor="#e5813978"] ;
77 -> 78 ;
79 [label=<gini = 0.127<br/>samples = 3<br/>value = [[3, 0]<br/>[3, 0]<br/>[2, 1]<br/>[1, 2]<br/>[3, 0]<br/>[3, 0]<br/>[3, 0]]>, fillcolor="#e5813979"] ;
77 -> 79 ;
80 [label=<gini = 0.0<br/>samples = 3<br/>value = [[3, 0]<br/>[3, 0]<br/>[3, 0]<br/>[0, 3]<br/>[3, 0]<br/>[3, 0]<br/>[3, 0]]>, fillcolor="#e58139ff"] ;
76 -> 80 ;
81 [label=<gini = 0.0<br/>samples = 1<br/>value = [[1, 0]<br/>[1, 0]<br/>[1, 0]<br/>[1, 0]<br/>[1, 0]<br/>[1, 0]<br/>[0, 1]]>, fillcolor="#e58139ff"] ;
75 -> 81 ;
82 [label=<X<SUB>6</SUB> &le; 0.5<br/>gini = 0.217<br/>samples = 10<br/>value = [[10, 0]<br/>[7, 3]<br/>[10, 0]<br/>[7, 3]<br/>[9, 1]<br/>[9, 1]<br/>[8, 2]]>, fillcolor="#e581391a"] ;
74 -> 82 ;
83 [label=<X<SUB>15</SUB> &le; 0.5<br/>gini = 0.219<br/>samples = 9<br/>value = [[9, 0]<br/>[7, 2]<br/>[9, 0]<br/>[6, 3]<br/>[8, 1]<br/>[8, 1]<br/>[7, 2]]>, fillcolor="#e5813919"] ;
82 -> 83 ;
84 [label=<gini = 0.214<br/>samples = 4<br/>value = [[4, 0]<br/>[3, 1]<br/>[4, 0]<br/>[3, 1]<br/>[3, 1]<br/>[4, 0]<br/>[3, 1]]>, fillcolor="#e581391d"] ;
83 -> 84 ;
85 [label=<gini = 0.206<br/>samples = 5<br/>value = [[5, 0]<br/>[4, 1]<br/>[5, 0]<br/>[3, 2]<br/>[5, 0]<br/>[4, 1]<br/>[4, 1]]>, fillcolor="#e5813926"] ;
83 -> 85 ;
86 [label=<gini = 0.0<br/>samples = 1<br/>value = [[1, 0]<br/>[0, 1]<br/>[1, 0]<br/>[1, 0]<br/>[1, 0]<br/>[1, 0]<br/>[1, 0]]>, fillcolor="#e58139ff"] ;
82 -> 86 ;
87 [label=<X<SUB>13</SUB> &le; 0.5<br/>gini = 0.131<br/>samples = 14<br/>value = [[14, 0]<br/>[14, 0]<br/>[13, 1]<br/>[4, 10]<br/>[14, 0]<br/>[12, 2]<br/>[13, 1]]>, fillcolor="#e5813975"] ;
57 -> 87 ;
88 [label=<gini = 0.0<br/>samples = 6<br/>value = [[6, 0]<br/>[6, 0]<br/>[6, 0]<br/>[0, 6]<br/>[6, 0]<br/>[6, 0]<br/>[6, 0]]>, fillcolor="#e58139ff"] ;
87 -> 88 ;
89 [label=<X<SUB>3</SUB> &le; 0.5<br/>gini = 0.188<br/>samples = 8<br/>value = [[8, 0]<br/>[8, 0]<br/>[7, 1]<br/>[4, 4]<br/>[8, 0]<br/>[6, 2]<br/>[7, 1]]>, fillcolor="#e5813939"] ;
87 -> 89 ;
90 [label=<X<SUB>7</SUB> &le; 0.5<br/>gini = 0.091<br/>samples = 5<br/>value = [[5, 0]<br/>[5, 0]<br/>[5, 0]<br/>[1, 4]<br/>[5, 0]<br/>[4, 1]<br/>[5, 0]]>, fillcolor="#e581399f"] ;
89 -> 90 ;
91 [label=<gini = 0.0<br/>samples = 3<br/>value = [[3, 0]<br/>[3, 0]<br/>[3, 0]<br/>[0, 3]<br/>[3, 0]<br/>[3, 0]<br/>[3, 0]]>, fillcolor="#e58139ff"] ;
90 -> 91 ;
92 [label=<X<SUB>4</SUB> &le; 0.5<br/>gini = 0.143<br/>samples = 2<br/>value = [[2, 0]<br/>[2, 0]<br/>[2, 0]<br/>[1, 1]<br/>[2, 0]<br/>[1, 1]<br/>[2, 0]]>, fillcolor="#e5813969"] ;
90 -> 92 ;
93 [label=<gini = 0.0<br/>samples = 1<br/>value = [[1, 0]<br/>[1, 0]<br/>[1, 0]<br/>[1, 0]<br/>[1, 0]<br/>[0, 1]<br/>[1, 0]]>, fillcolor="#e58139ff"] ;
92 -> 93 ;
94 [label=<gini = 0.0<br/>samples = 1<br/>value = [[1, 0]<br/>[1, 0]<br/>[1, 0]<br/>[0, 1]<br/>[1, 0]<br/>[1, 0]<br/>[1, 0]]>, fillcolor="#e58139ff"] ;
92 -> 94 ;
95 [label=<gini = 0.19<br/>samples = 3<br/>value = [[3, 0]<br/>[3, 0]<br/>[2, 1]<br/>[3, 0]<br/>[3, 0]<br/>[2, 1]<br/>[2, 1]]>, fillcolor="#e5813936"] ;
89 -> 95 ;
96 [label=<X<SUB>3</SUB> &le; 0.5<br/>gini = 0.218<br/>samples = 344<br/>value = [[336, 8]<br/>[291, 53]<br/>[315, 29]<br/>[206, 138]<br/>[320, 24]<br/>[310, 34]<br/>[286, 58]]>, fillcolor="#e5813919"] ;
20 -> 96 ;
97 [label=<X<SUB>29</SUB> &le; 0.5<br/>gini = 0.218<br/>samples = 334<br/>value = [[327, 7]<br/>[281, 53]<br/>[307, 27]<br/>[200, 134]<br/>[310, 24]<br/>[303, 31]<br/>[276, 58]]>, fillcolor="#e5813919"] ;
96 -> 97 ;
98 [label=<X<SUB>7</SUB> &le; 0.5<br/>gini = 0.222<br/>samples = 168<br/>value = [[164, 4]<br/>[141, 27]<br/>[152, 16]<br/>[104, 64]<br/>[156, 12]<br/>[148, 20]<br/>[143, 25]]>, fillcolor="#e5813915"] ;
97 -> 98 ;
99 [label=<X<SUB>13</SUB> &le; 0.5<br/>gini = 0.222<br/>samples = 167<br/>value = [[163, 4]<br/>[140, 27]<br/>[151, 16]<br/>[103, 64]<br/>[155, 12]<br/>[148, 19]<br/>[142, 25]]>, fillcolor="#e5813915"] ;
98 -> 99 ;
100 [label=<X<SUB>4</SUB> &le; 0.5<br/>gini = 0.224<br/>samples = 155<br/>value = [[152, 3]<br/>[130, 25]<br/>[139, 16]<br/>[98, 57]<br/>[144, 11]<br/>[137, 18]<br/>[130, 25]]>, fillcolor="#e5813913"] ;
99 -> 100 ;
101 [label=<X<SUB>22</SUB> &le; 0.5<br/>gini = 0.224<br/>samples = 154<br/>value = [[151, 3]<br/>[129, 25]<br/>[138, 16]<br/>[98, 56]<br/>[143, 11]<br/>[136, 18]<br/>[129, 25]]>, fillcolor="#e5813913"] ;
100 -> 101 ;
102 [label=<X<SUB>6</SUB> &le; 0.5<br/>gini = 0.223<br/>samples = 137<br/>value = [[134, 3]<br/>[114, 23]<br/>[124, 13]<br/>[86, 51]<br/>[127, 10]<br/>[121, 16]<br/>[116, 21]]>, fillcolor="#e5813914"] ;
101 -> 102 ;
103 [label=<gini = 0.224<br/>samples = 130<br/>value = [[127, 3]<br/>[109, 21]<br/>[117, 13]<br/>[82, 48]<br/>[120, 10]<br/>[115, 15]<br/>[110, 20]]>, fillcolor="#e5813913"] ;
102 -> 103 ;
104 [label=<gini = 0.198<br/>samples = 7<br/>value = [[7, 0]<br/>[5, 2]<br/>[7, 0]<br/>[4, 3]<br/>[7, 0]<br/>[6, 1]<br/>[6, 1]]>, fillcolor="#e581392e"] ;
102 -> 104 ;
105 [label=<gini = 0.227<br/>samples = 17<br/>value = [[17, 0]<br/>[15, 2]<br/>[14, 3]<br/>[12, 5]<br/>[16, 1]<br/>[15, 2]<br/>[13, 4]]>, fillcolor="#e581390f"] ;
101 -> 105 ;
106 [label=<gini = 0.0<br/>samples = 1<br/>value = [[1, 0]<br/>[1, 0]<br/>[1, 0]<br/>[0, 1]<br/>[1, 0]<br/>[1, 0]<br/>[1, 0]]>, fillcolor="#e58139ff"] ;
100 -> 106 ;
107 [label=<X<SUB>4</SUB> &le; 0.5<br/>gini = 0.175<br/>samples = 12<br/>value = [[11, 1]<br/>[10, 2]<br/>[12, 0]<br/>[5, 7]<br/>[11, 1]<br/>[11, 1]<br/>[12, 0]]>, fillcolor="#e5813947"] ;
99 -> 107 ;
108 [label=<X<SUB>22</SUB> &le; 0.5<br/>gini = 0.156<br/>samples = 11<br/>value = [[11, 0]<br/>[9, 2]<br/>[11, 0]<br/>[4, 7]<br/>[10, 1]<br/>[10, 1]<br/>[11, 0]]>, fillcolor="#e581395b"] ;
107 -> 108 ;
109 [label=<gini = 0.163<br/>samples = 7<br/>value = [[7, 0]<br/>[5, 2]<br/>[7, 0]<br/>[3, 4]<br/>[7, 0]<br/>[6, 1]<br/>[7, 0]]>, fillcolor="#e5813953"] ;
108 -> 109 ;
110 [label=<gini = 0.107<br/>samples = 4<br/>value = [[4, 0]<br/>[4, 0]<br/>[4, 0]<br/>[1, 3]<br/>[3, 1]<br/>[4, 0]<br/>[4, 0]]>, fillcolor="#e581398e"] ;
108 -> 110 ;
111 [label=<gini = 0.0<br/>samples = 1<br/>value = [[0, 1]<br/>[1, 0]<br/>[1, 0]<br/>[1, 0]<br/>[1, 0]<br/>[1, 0]<br/>[1, 0]]>, fillcolor="#e58139ff"] ;
107 -> 111 ;
112 [label=<gini = 0.0<br/>samples = 1<br/>value = [[1, 0]<br/>[1, 0]<br/>[1, 0]<br/>[1, 0]<br/>[1, 0]<br/>[0, 1]<br/>[1, 0]]>, fillcolor="#e58139ff"] ;
98 -> 112 ;
113 [label=<X<SUB>4</SUB> &le; 0.5<br/>gini = 0.213<br/>samples = 166<br/>value = [[163, 3]<br/>[140, 26]<br/>[155, 11]<br/>[96, 70]<br/>[154, 12]<br/>[155, 11]<br/>[133, 33]]>, fillcolor="#e581391f"] ;
97 -> 113 ;
114 [label=<X<SUB>23</SUB> &le; 0.5<br/>gini = 0.212<br/>samples = 165<br/>value = [[162, 3]<br/>[140, 25]<br/>[154, 11]<br/>[95, 70]<br/>[153, 12]<br/>[154, 11]<br/>[132, 33]]>, fillcolor="#e5813920"] ;
113 -> 114 ;
115 [label=<X<SUB>13</SUB> &le; 0.5<br/>gini = 0.176<br/>samples = 17<br/>value = [[17, 0]<br/>[16, 1]<br/>[15, 2]<br/>[7, 10]<br/>[16, 1]<br/>[16, 1]<br/>[15, 2]]>, fillcolor="#e5813946"] ;
114 -> 115 ;
116 [label=<gini = 0.173<br/>samples = 15<br/>value = [[15, 0]<br/>[14, 1]<br/>[13, 2]<br/>[6, 9]<br/>[14, 1]<br/>[14, 1]<br/>[14, 1]]>, fillcolor="#e5813949"] ;
115 -> 116 ;
117 [label=<gini = 0.143<br/>samples = 2<br/>value = [[2, 0]<br/>[2, 0]<br/>[2, 0]<br/>[1, 1]<br/>[2, 0]<br/>[2, 0]<br/>[1, 1]]>, fillcolor="#e5813969"] ;
115 -> 117 ;
118 [label=<X<SUB>7</SUB> &le; 0.5<br/>gini = 0.215<br/>samples = 148<br/>value = [[145, 3]<br/>[124, 24]<br/>[139, 9]<br/>[88, 60]<br/>[137, 11]<br/>[138, 10]<br/>[117, 31]]>, fillcolor="#e581391d"] ;
114 -> 118 ;
119 [label=<X<SUB>6</SUB> &le; 0.5<br/>gini = 0.215<br/>samples = 147<br/>value = [[144, 3]<br/>[123, 24]<br/>[138, 9]<br/>[88, 59]<br/>[136, 11]<br/>[137, 10]<br/>[116, 31]]>, fillcolor="#e581391c"] ;
118 -> 119 ;
120 [label=<X<SUB>13</SUB> &le; 0.5<br/>gini = 0.216<br/>samples = 138<br/>value = [[135, 3]<br/>[117, 21]<br/>[129, 9]<br/>[83, 55]<br/>[127, 11]<br/>[128, 10]<br/>[109, 29]]>, fillcolor="#e581391b"] ;
119 -> 120 ;
121 [label=<gini = 0.216<br/>samples = 128<br/>value = [[125, 3]<br/>[109, 19]<br/>[120, 8]<br/>[76, 52]<br/>[118, 10]<br/>[118, 10]<br/>[102, 26]]>, fillcolor="#e581391c"] ;
120 -> 121 ;
122 [label=<gini = 0.217<br/>samples = 10<br/>value = [[10, 0]<br/>[8, 2]<br/>[9, 1]<br/>[7, 3]<br/>[9, 1]<br/>[10, 0]<br/>[7, 3]]>, fillcolor="#e581391a"] ;
120 -> 122 ;
123 [label=<gini = 0.183<br/>samples = 9<br/>value = [[9, 0]<br/>[6, 3]<br/>[9, 0]<br/>[5, 4]<br/>[9, 0]<br/>[9, 0]<br/>[7, 2]]>, fillcolor="#e581393e"] ;
119 -> 123 ;
124 [label=<gini = 0.0<br/>samples = 1<br/>value = [[1, 0]<br/>[1, 0]<br/>[1, 0]<br/>[0, 1]<br/>[1, 0]<br/>[1, 0]<br/>[1, 0]]>, fillcolor="#e58139ff"] ;
118 -> 124 ;
125 [label=<gini = 0.0<br/>samples = 1<br/>value = [[1, 0]<br/>[0, 1]<br/>[1, 0]<br/>[1, 0]<br/>[1, 0]<br/>[1, 0]<br/>[1, 0]]>, fillcolor="#e58139ff"] ;
113 -> 125 ;
126 [label=<X<SUB>31</SUB> &le; 0.5<br/>gini = 0.2<br/>samples = 10<br/>value = [[9, 1]<br/>[10, 0]<br/>[8, 2]<br/>[6, 4]<br/>[10, 0]<br/>[7, 3]<br/>[10, 0]]>, fillcolor="#e581392c"] ;
96 -> 126 ;
127 [label=<X<SUB>7</SUB> &le; 0.5<br/>gini = 0.206<br/>samples = 6<br/>value = [[5, 1]<br/>[6, 0]<br/>[4, 2]<br/>[4, 2]<br/>[6, 0]<br/>[5, 1]<br/>[6, 0]]>, fillcolor="#e5813926"] ;
126 -> 127 ;
128 [label=<X<SUB>13</SUB> &le; 0.5<br/>gini = 0.206<br/>samples = 5<br/>value = [[4, 1]<br/>[5, 0]<br/>[3, 2]<br/>[4, 1]<br/>[5, 0]<br/>[4, 1]<br/>[5, 0]]>, fillcolor="#e5813926"] ;
127 -> 128 ;
129 [label=<gini = 0.143<br/>samples = 2<br/>value = [[1, 1]<br/>[2, 0]<br/>[1, 1]<br/>[2, 0]<br/>[2, 0]<br/>[2, 0]<br/>[2, 0]]>, fillcolor="#e5813969"] ;
128 -> 129 ;
130 [label=<gini = 0.19<br/>samples = 3<br/>value = [[3, 0]<br/>[3, 0]<br/>[2, 1]<br/>[2, 1]<br/>[3, 0]<br/>[2, 1]<br/>[3, 0]]>, fillcolor="#e5813936"] ;
128 -> 130 ;
131 [label=<gini = 0.0<br/>samples = 1<br/>value = [[1, 0]<br/>[1, 0]<br/>[1, 0]<br/>[0, 1]<br/>[1, 0]<br/>[1, 0]<br/>[1, 0]]>, fillcolor="#e58139ff"] ;
127 -> 131 ;
132 [label=<X<SUB>4</SUB> &le; 0.5<br/>gini = 0.143<br/>samples = 4<br/>value = [[4, 0]<br/>[4, 0]<br/>[4, 0]<br/>[2, 2]<br/>[4, 0]<br/>[2, 2]<br/>[4, 0]]>, fillcolor="#e5813969"] ;
126 -> 132 ;
133 [label=<gini = 0.127<br/>samples = 3<br/>value = [[3, 0]<br/>[3, 0]<br/>[3, 0]<br/>[1, 2]<br/>[3, 0]<br/>[2, 1]<br/>[3, 0]]>, fillcolor="#e5813979"] ;
132 -> 133 ;
134 [label=<gini = 0.0<br/>samples = 1<br/>value = [[1, 0]<br/>[1, 0]<br/>[1, 0]<br/>[1, 0]<br/>[1, 0]<br/>[0, 1]<br/>[1, 0]]>, fillcolor="#e58139ff"] ;
132 -> 134 ;
135 [label=<X<SUB>3</SUB> &le; 0.5<br/>gini = 0.176<br/>samples = 19<br/>value = [[19, 0]<br/>[16, 3]<br/>[18, 1]<br/>[8, 11]<br/>[17, 2]<br/>[19, 0]<br/>[17, 2]]>, fillcolor="#e5813946"] ;
19 -> 135 ;
136 [label=<X<SUB>6</SUB> &le; 0.5<br/>gini = 0.172<br/>samples = 14<br/>value = [[14, 0]<br/>[11, 3]<br/>[14, 0]<br/>[6, 8]<br/>[13, 1]<br/>[14, 0]<br/>[12, 2]]>, fillcolor="#e581394a"] ;
135 -> 136 ;
137 [label=<X<SUB>29</SUB> &le; 0.5<br/>gini = 0.162<br/>samples = 13<br/>value = [[13, 0]<br/>[11, 2]<br/>[13, 0]<br/>[5, 8]<br/>[12, 1]<br/>[13, 0]<br/>[11, 2]]>, fillcolor="#e5813954"] ;
136 -> 137 ;
138 [label=<X<SUB>4</SUB> &le; 0.5<br/>gini = 0.19<br/>samples = 6<br/>value = [[6, 0]<br/>[5, 1]<br/>[6, 0]<br/>[3, 3]<br/>[5, 1]<br/>[6, 0]<br/>[5, 1]]>, fillcolor="#e5813936"] ;
137 -> 138 ;
139 [label=<gini = 0.206<br/>samples = 5<br/>value = [[5, 0]<br/>[4, 1]<br/>[5, 0]<br/>[3, 2]<br/>[4, 1]<br/>[5, 0]<br/>[4, 1]]>, fillcolor="#e5813926"] ;
138 -> 139 ;
140 [label=<gini = 0.0<br/>samples = 1<br/>value = [[1, 0]<br/>[1, 0]<br/>[1, 0]<br/>[0, 1]<br/>[1, 0]<br/>[1, 0]<br/>[1, 0]]>, fillcolor="#e58139ff"] ;
138 -> 140 ;
141 [label=<X<SUB>13</SUB> &le; 0.5<br/>gini = 0.128<br/>samples = 7<br/>value = [[7, 0]<br/>[6, 1]<br/>[7, 0]<br/>[2, 5]<br/>[7, 0]<br/>[7, 0]<br/>[6, 1]]>, fillcolor="#e5813978"] ;
137 -> 141 ;
142 [label=<X<SUB>23</SUB> &le; 0.5<br/>gini = 0.143<br/>samples = 6<br/>value = [[6, 0]<br/>[5, 1]<br/>[6, 0]<br/>[2, 4]<br/>[6, 0]<br/>[6, 0]<br/>[5, 1]]>, fillcolor="#e5813969"] ;
141 -> 142 ;
143 [label=<gini = 0.0<br/>samples = 1<br/>value = [[1, 0]<br/>[1, 0]<br/>[1, 0]<br/>[0, 1]<br/>[1, 0]<br/>[1, 0]<br/>[1, 0]]>, fillcolor="#e58139ff"] ;
142 -> 143 ;
144 [label=<gini = 0.16<br/>samples = 5<br/>value = [[5, 0]<br/>[4, 1]<br/>[5, 0]<br/>[2, 3]<br/>[5, 0]<br/>[5, 0]<br/>[4, 1]]>, fillcolor="#e5813956"] ;
142 -> 144 ;
145 [label=<gini = 0.0<br/>samples = 1<br/>value = [[1, 0]<br/>[1, 0]<br/>[1, 0]<br/>[0, 1]<br/>[1, 0]<br/>[1, 0]<br/>[1, 0]]>, fillcolor="#e58139ff"] ;
141 -> 145 ;
146 [label=<gini = 0.0<br/>samples = 1<br/>value = [[1, 0]<br/>[0, 1]<br/>[1, 0]<br/>[1, 0]<br/>[1, 0]<br/>[1, 0]<br/>[1, 0]]>, fillcolor="#e58139ff"] ;
136 -> 146 ;
147 [label=<X<SUB>31</SUB> &le; 0.5<br/>gini = 0.16<br/>samples = 5<br/>value = [[5, 0]<br/>[5, 0]<br/>[4, 1]<br/>[2, 3]<br/>[4, 1]<br/>[5, 0]<br/>[5, 0]]>, fillcolor="#e5813956"] ;
135 -> 147 ;
148 [label=<gini = 0.0<br/>samples = 1<br/>value = [[1, 0]<br/>[1, 0]<br/>[0, 1]<br/>[1, 0]<br/>[1, 0]<br/>[1, 0]<br/>[1, 0]]>, fillcolor="#e58139ff"] ;
147 -> 148 ;
149 [label=<X<SUB>13</SUB> &le; 0.5<br/>gini = 0.107<br/>samples = 4<br/>value = [[4, 0]<br/>[4, 0]<br/>[4, 0]<br/>[1, 3]<br/>[3, 1]<br/>[4, 0]<br/>[4, 0]]>, fillcolor="#e581398e"] ;
147 -> 149 ;
150 [label=<gini = 0.0<br/>samples = 2<br/>value = [[2, 0]<br/>[2, 0]<br/>[2, 0]<br/>[0, 2]<br/>[2, 0]<br/>[2, 0]<br/>[2, 0]]>, fillcolor="#e58139ff"] ;
149 -> 150 ;
151 [label=<gini = 0.143<br/>samples = 2<br/>value = [[2, 0]<br/>[2, 0]<br/>[2, 0]<br/>[1, 1]<br/>[1, 1]<br/>[2, 0]<br/>[2, 0]]>, fillcolor="#e5813969"] ;
149 -> 151 ;
152 [label=<X<SUB>29</SUB> &le; 0.5<br/>gini = 0.19<br/>samples = 3<br/>value = [[3, 0]<br/>[3, 0]<br/>[3, 0]<br/>[3, 0]<br/>[2, 1]<br/>[2, 1]<br/>[2, 1]]>, fillcolor="#e5813936"] ;
18 -> 152 ;
153 [label=<gini = 0.0<br/>samples = 1<br/>value = [[1, 0]<br/>[1, 0]<br/>[1, 0]<br/>[1, 0]<br/>[0, 1]<br/>[1, 0]<br/>[1, 0]]>, fillcolor="#e58139ff"] ;
152 -> 153 ;
154 [label=<X<SUB>3</SUB> &le; 0.5<br/>gini = 0.143<br/>samples = 2<br/>value = [[2, 0]<br/>[2, 0]<br/>[2, 0]<br/>[2, 0]<br/>[2, 0]<br/>[1, 1]<br/>[1, 1]]>, fillcolor="#e5813969"] ;
152 -> 154 ;
155 [label=<gini = 0.0<br/>samples = 1<br/>value = [[1, 0]<br/>[1, 0]<br/>[1, 0]<br/>[1, 0]<br/>[1, 0]<br/>[0, 1]<br/>[1, 0]]>, fillcolor="#e58139ff"] ;
154 -> 155 ;
156 [label=<gini = 0.0<br/>samples = 1<br/>value = [[1, 0]<br/>[1, 0]<br/>[1, 0]<br/>[1, 0]<br/>[1, 0]<br/>[1, 0]<br/>[0, 1]]>, fillcolor="#e58139ff"] ;
154 -> 156 ;
157 [label=<X<SUB>24</SUB> &le; 0.5<br/>gini = 0.213<br/>samples = 75<br/>value = [[74, 1]<br/>[61, 14]<br/>[69, 6]<br/>[43, 32]<br/>[65, 10]<br/>[69, 6]<br/>[69, 6]]>, fillcolor="#e581391e"] ;
17 -> 157 ;
158 [label=<X<SUB>0</SUB> &le; 0.5<br/>gini = 0.208<br/>samples = 69<br/>value = [[68, 1]<br/>[55, 14]<br/>[63, 6]<br/>[38, 31]<br/>[61, 8]<br/>[66, 3]<br/>[63, 6]]>, fillcolor="#e5813924"] ;
157 -> 158 ;
159 [label=<X<SUB>6</SUB> &le; 0.5<br/>gini = 0.216<br/>samples = 23<br/>value = [[22, 1]<br/>[15, 8]<br/>[21, 2]<br/>[16, 7]<br/>[20, 3]<br/>[22, 1]<br/>[22, 1]]>, fillcolor="#e581391b"] ;
158 -> 159 ;
160 [label=<X<SUB>3</SUB> &le; 0.5<br/>gini = 0.22<br/>samples = 21<br/>value = [[20, 1]<br/>[15, 6]<br/>[19, 2]<br/>[14, 7]<br/>[18, 3]<br/>[20, 1]<br/>[20, 1]]>, fillcolor="#e5813917"] ;
159 -> 160 ;
161 [label=<X<SUB>31</SUB> &le; 0.5<br/>gini = 0.217<br/>samples = 20<br/>value = [[19, 1]<br/>[14, 6]<br/>[18, 2]<br/>[13, 7]<br/>[18, 2]<br/>[19, 1]<br/>[19, 1]]>, fillcolor="#e581391a"] ;
160 -> 161 ;
162 [label=<gini = 0.212<br/>samples = 9<br/>value = [[8, 1]<br/>[6, 3]<br/>[9, 0]<br/>[6, 3]<br/>[8, 1]<br/>[8, 1]<br/>[9, 0]]>, fillcolor="#e5813920"] ;
161 -> 162 ;
163 [label=<gini = 0.213<br/>samples = 11<br/>value = [[11, 0]<br/>[8, 3]<br/>[9, 2]<br/>[7, 4]<br/>[10, 1]<br/>[11, 0]<br/>[10, 1]]>, fillcolor="#e581391f"] ;
161 -> 163 ;
164 [label=<gini = 0.0<br/>samples = 1<br/>value = [[1, 0]<br/>[1, 0]<br/>[1, 0]<br/>[1, 0]<br/>[0, 1]<br/>[1, 0]<br/>[1, 0]]>, fillcolor="#e58139ff"] ;
160 -> 164 ;
165 [label=<gini = 0.0<br/>samples = 2<br/>value = [[2, 0]<br/>[0, 2]<br/>[2, 0]<br/>[2, 0]<br/>[2, 0]<br/>[2, 0]<br/>[2, 0]]>, fillcolor="#e58139ff"] ;
159 -> 165 ;
166 [label=<X<SUB>31</SUB> &le; 0.5<br/>gini = 0.194<br/>samples = 46<br/>value = [[46, 0]<br/>[40, 6]<br/>[42, 4]<br/>[22, 24]<br/>[41, 5]<br/>[44, 2]<br/>[41, 5]]>, fillcolor="#e5813933"] ;
158 -> 166 ;
167 [label=<X<SUB>4</SUB> &le; 0.5<br/>gini = 0.202<br/>samples = 23<br/>value = [[23, 0]<br/>[18, 5]<br/>[22, 1]<br/>[13, 10]<br/>[21, 2]<br/>[23, 0]<br/>[18, 5]]>, fillcolor="#e581392a"] ;
166 -> 167 ;
168 [label=<X<SUB>23</SUB> &le; 0.5<br/>gini = 0.2<br/>samples = 22<br/>value = [[22, 0]<br/>[18, 4]<br/>[21, 1]<br/>[12, 10]<br/>[20, 2]<br/>[22, 0]<br/>[17, 5]]>, fillcolor="#e581392d"] ;
167 -> 168 ;
169 [label=<gini = 0.19<br/>samples = 3<br/>value = [[3, 0]<br/>[2, 1]<br/>[3, 0]<br/>[2, 1]<br/>[3, 0]<br/>[3, 0]<br/>[2, 1]]>, fillcolor="#e5813936"] ;
168 -> 169 ;
170 [label=<gini = 0.198<br/>samples = 19<br/>value = [[19, 0]<br/>[16, 3]<br/>[18, 1]<br/>[10, 9]<br/>[17, 2]<br/>[19, 0]<br/>[15, 4]]>, fillcolor="#e581392f"] ;
168 -> 170 ;
171 [label=<gini = 0.0<br/>samples = 1<br/>value = [[1, 0]<br/>[0, 1]<br/>[1, 0]<br/>[1, 0]<br/>[1, 0]<br/>[1, 0]<br/>[1, 0]]>, fillcolor="#e58139ff"] ;
167 -> 171 ;
172 [label=<X<SUB>22</SUB> &le; 0.5<br/>gini = 0.167<br/>samples = 23<br/>value = [[23, 0]<br/>[22, 1]<br/>[20, 3]<br/>[9, 14]<br/>[20, 3]<br/>[21, 2]<br/>[23, 0]]>, fillcolor="#e581394f"] ;
166 -> 172 ;
173 [label=<X<SUB>13</SUB> &le; 0.5<br/>gini = 0.169<br/>samples = 20<br/>value = [[20, 0]<br/>[19, 1]<br/>[17, 3]<br/>[8, 12]<br/>[17, 3]<br/>[19, 1]<br/>[20, 0]]>, fillcolor="#e581394d"] ;
172 -> 173 ;
174 [label=<gini = 0.174<br/>samples = 19<br/>value = [[19, 0]<br/>[18, 1]<br/>[16, 3]<br/>[8, 11]<br/>[16, 3]<br/>[18, 1]<br/>[19, 0]]>, fillcolor="#e5813948"] ;
173 -> 174 ;
175 [label=<gini = 0.0<br/>samples = 1<br/>value = [[1, 0]<br/>[1, 0]<br/>[1, 0]<br/>[0, 1]<br/>[1, 0]<br/>[1, 0]<br/>[1, 0]]>, fillcolor="#e58139ff"] ;
173 -> 175 ;
176 [label=<X<SUB>6</SUB> &le; 0.5<br/>gini = 0.127<br/>samples = 3<br/>value = [[3, 0]<br/>[3, 0]<br/>[3, 0]<br/>[1, 2]<br/>[3, 0]<br/>[2, 1]<br/>[3, 0]]>, fillcolor="#e5813979"] ;
172 -> 176 ;
177 [label=<gini = 0.143<br/>samples = 2<br/>value = [[2, 0]<br/>[2, 0]<br/>[2, 0]<br/>[1, 1]<br/>[2, 0]<br/>[1, 1]<br/>[2, 0]]>, fillcolor="#e5813969"] ;
176 -> 177 ;
178 [label=<gini = 0.0<br/>samples = 1<br/>value = [[1, 0]<br/>[1, 0]<br/>[1, 0]<br/>[0, 1]<br/>[1, 0]<br/>[1, 0]<br/>[1, 0]]>, fillcolor="#e58139ff"] ;
176 -> 178 ;
179 [label=<X<SUB>29</SUB> &le; 0.5<br/>gini = 0.175<br/>samples = 6<br/>value = [[6, 0]<br/>[6, 0]<br/>[6, 0]<br/>[5, 1]<br/>[4, 2]<br/>[3, 3]<br/>[6, 0]]>, fillcolor="#e5813947"] ;
157 -> 179 ;
180 [label=<gini = 0.0<br/>samples = 2<br/>value = [[2, 0]<br/>[2, 0]<br/>[2, 0]<br/>[2, 0]<br/>[2, 0]<br/>[0, 2]<br/>[2, 0]]>, fillcolor="#e58139ff"] ;
179 -> 180 ;
181 [label=<X<SUB>4</SUB> &le; 0.5<br/>gini = 0.179<br/>samples = 4<br/>value = [[4, 0]<br/>[4, 0]<br/>[4, 0]<br/>[3, 1]<br/>[2, 2]<br/>[3, 1]<br/>[4, 0]]>, fillcolor="#e5813943"] ;
179 -> 181 ;
182 [label=<X<SUB>0</SUB> &le; 0.5<br/>gini = 0.127<br/>samples = 3<br/>value = [[3, 0]<br/>[3, 0]<br/>[3, 0]<br/>[2, 1]<br/>[1, 2]<br/>[3, 0]<br/>[3, 0]]>, fillcolor="#e5813979"] ;
181 -> 182 ;
183 [label=<gini = 0.0<br/>samples = 1<br/>value = [[1, 0]<br/>[1, 0]<br/>[1, 0]<br/>[1, 0]<br/>[0, 1]<br/>[1, 0]<br/>[1, 0]]>, fillcolor="#e58139ff"] ;
182 -> 183 ;
184 [label=<gini = 0.143<br/>samples = 2<br/>value = [[2, 0]<br/>[2, 0]<br/>[2, 0]<br/>[1, 1]<br/>[1, 1]<br/>[2, 0]<br/>[2, 0]]>, fillcolor="#e5813969"] ;
182 -> 184 ;
185 [label=<gini = 0.0<br/>samples = 1<br/>value = [[1, 0]<br/>[1, 0]<br/>[1, 0]<br/>[1, 0]<br/>[1, 0]<br/>[0, 1]<br/>[1, 0]]>, fillcolor="#e58139ff"] ;
181 -> 185 ;
186 [label=<gini = 0.0<br/>samples = 2<br/>value = [[2, 0]<br/>[2, 0]<br/>[2, 0]<br/>[2, 0]<br/>[2, 0]<br/>[0, 2]<br/>[2, 0]]>, fillcolor="#e58139ff"] ;
16 -> 186 ;
187 [label=<X<SUB>31</SUB> &le; 0.5<br/>gini = 0.217<br/>samples = 1163<br/>value = [[1144, 19]<br/>[987, 176]<br/>[1099, 64]<br/>[702, 461]<br/>[1067, 96]<br/>[1053, 110]<br/>[926, 237]]>, fillcolor="#e581391a"] ;
15 -> 187 ;
188 [label=<X<SUB>11</SUB> &le; 0.5<br/>gini = 0.214<br/>samples = 579<br/>value = [[569, 10]<br/>[496, 83]<br/>[550, 29]<br/>[334, 245]<br/>[524, 55]<br/>[525, 54]<br/>[476, 103]]>, fillcolor="#e581391e"] ;
187 -> 188 ;
189 [label=<X<SUB>13</SUB> &le; 0.5<br/>gini = 0.213<br/>samples = 494<br/>value = [[484, 10]<br/>[421, 73]<br/>[468, 26]<br/>[281, 213]<br/>[451, 43]<br/>[449, 45]<br/>[410, 84]]>, fillcolor="#e581391f"] ;
188 -> 189 ;
190 [label=<X<SUB>10</SUB> &le; 0.5<br/>gini = 0.212<br/>samples = 345<br/>value = [[335, 10]<br/>[299, 46]<br/>[326, 19]<br/>[193, 152]<br/>[316, 29]<br/>[309, 36]<br/>[292, 53]]>, fillcolor="#e581391f"] ;
189 -> 190 ;
191 [label=<X<SUB>6</SUB> &le; 0.5<br/>gini = 0.213<br/>samples = 341<br/>value = [[331, 10]<br/>[295, 46]<br/>[322, 19]<br/>[193, 148]<br/>[312, 29]<br/>[305, 36]<br/>[288, 53]]>, fillcolor="#e581391e"] ;
190 -> 191 ;
192 [label=<X<SUB>0</SUB> &le; 0.5<br/>gini = 0.216<br/>samples = 294<br/>value = [[286, 8]<br/>[252, 42]<br/>[278, 16]<br/>[171, 123]<br/>[270, 24]<br/>[260, 34]<br/>[247, 47]]>, fillcolor="#e581391c"] ;
191 -> 192 ;
193 [label=<X<SUB>23</SUB> &le; 0.5<br/>gini = 0.223<br/>samples = 44<br/>value = [[44, 0]<br/>[39, 5]<br/>[43, 1]<br/>[29, 15]<br/>[36, 8]<br/>[37, 7]<br/>[36, 8]]>, fillcolor="#e5813915"] ;
192 -> 193 ;
194 [label=<X<SUB>7</SUB> &le; 0.5<br/>gini = 0.127<br/>samples = 3<br/>value = [[3, 0]<br/>[3, 0]<br/>[3, 0]<br/>[2, 1]<br/>[3, 0]<br/>[1, 2]<br/>[3, 0]]>, fillcolor="#e5813979"] ;
193 -> 194 ;
195 [label=<gini = 0.0<br/>samples = 2<br/>value = [[2, 0]<br/>[2, 0]<br/>[2, 0]<br/>[2, 0]<br/>[2, 0]<br/>[0, 2]<br/>[2, 0]]>, fillcolor="#e58139ff"] ;
194 -> 195 ;
196 [label=<gini = 0.0<br/>samples = 1<br/>value = [[1, 0]<br/>[1, 0]<br/>[1, 0]<br/>[0, 1]<br/>[1, 0]<br/>[1, 0]<br/>[1, 0]]>, fillcolor="#e58139ff"] ;
194 -> 196 ;
197 [label=<X<SUB>4</SUB> &le; 0.5<br/>gini = 0.222<br/>samples = 41<br/>value = [[41, 0]<br/>[36, 5]<br/>[40, 1]<br/>[27, 14]<br/>[33, 8]<br/>[36, 5]<br/>[33, 8]]>, fillcolor="#e5813915"] ;
193 -> 197 ;
198 [label=<X<SUB>7</SUB> &le; 0.5<br/>gini = 0.229<br/>samples = 27<br/>value = [[27, 0]<br/>[22, 5]<br/>[26, 1]<br/>[20, 7]<br/>[21, 6]<br/>[24, 3]<br/>[22, 5]]>, fillcolor="#e581390e"] ;
197 -> 198 ;
199 [label=<X<SUB>12</SUB> &le; 0.5<br/>gini = 0.225<br/>samples = 21<br/>value = [[21, 0]<br/>[18, 3]<br/>[20, 1]<br/>[14, 7]<br/>[17, 4]<br/>[18, 3]<br/>[18, 3]]>, fillcolor="#e5813911"] ;
198 -> 199 ;
200 [label=<gini = 0.229<br/>samples = 20<br/>value = [[20, 0]<br/>[17, 3]<br/>[19, 1]<br/>[14, 6]<br/>[16, 4]<br/>[17, 3]<br/>[17, 3]]>, fillcolor="#e581390e"] ;
199 -> 200 ;
201 [label=<gini = 0.0<br/>samples = 1<br/>value = [[1, 0]<br/>[1, 0]<br/>[1, 0]<br/>[0, 1]<br/>[1, 0]<br/>[1, 0]<br/>[1, 0]]>, fillcolor="#e58139ff"] ;
199 -> 201 ;
202 [label=<X<SUB>3</SUB> &le; 0.5<br/>gini = 0.19<br/>samples = 6<br/>value = [[6, 0]<br/>[4, 2]<br/>[6, 0]<br/>[6, 0]<br/>[4, 2]<br/>[6, 0]<br/>[4, 2]]>, fillcolor="#e5813936"] ;
198 -> 202 ;
203 [label=<gini = 0.183<br/>samples = 5<br/>value = [[5, 0]<br/>[4, 1]<br/>[5, 0]<br/>[5, 0]<br/>[3, 2]<br/>[5, 0]<br/>[3, 2]]>, fillcolor="#e581393e"] ;
202 -> 203 ;
204 [label=<gini = 0.0<br/>samples = 1<br/>value = [[1, 0]<br/>[0, 1]<br/>[1, 0]<br/>[1, 0]<br/>[1, 0]<br/>[1, 0]<br/>[1, 0]]>, fillcolor="#e58139ff"] ;
202 -> 204 ;
205 [label=<X<SUB>7</SUB> &le; 0.5<br/>gini = 0.19<br/>samples = 14<br/>value = [[14, 0]<br/>[14, 0]<br/>[14, 0]<br/>[7, 7]<br/>[12, 2]<br/>[12, 2]<br/>[11, 3]]>, fillcolor="#e5813937"] ;
197 -> 205 ;
206 [label=<gini = 0.16<br/>samples = 5<br/>value = [[5, 0]<br/>[5, 0]<br/>[5, 0]<br/>[2, 3]<br/>[5, 0]<br/>[4, 1]<br/>[4, 1]]>, fillcolor="#e5813956"] ;
205 -> 206 ;
207 [label=<gini = 0.198<br/>samples = 9<br/>value = [[9, 0]<br/>[9, 0]<br/>[9, 0]<br/>[5, 4]<br/>[7, 2]<br/>[8, 1]<br/>[7, 2]]>, fillcolor="#e581392f"] ;
205 -> 207 ;
208 [label=<X<SUB>4</SUB> &le; 0.5<br/>gini = 0.213<br/>samples = 250<br/>value = [[242, 8]<br/>[213, 37]<br/>[235, 15]<br/>[142, 108]<br/>[234, 16]<br/>[223, 27]<br/>[211, 39]]>, fillcolor="#e581391e"] ;
192 -> 208 ;
209 [label=<X<SUB>3</SUB> &le; 0.5<br/>gini = 0.213<br/>samples = 247<br/>value = [[239, 8]<br/>[210, 37]<br/>[232, 15]<br/>[140, 107]<br/>[231, 16]<br/>[220, 27]<br/>[210, 37]]>, fillcolor="#e581391e"] ;
208 -> 209 ;
210 [label=<X<SUB>22</SUB> &le; 0.5<br/>gini = 0.214<br/>samples = 241<br/>value = [[234, 7]<br/>[205, 36]<br/>[226, 15]<br/>[138, 103]<br/>[225, 16]<br/>[214, 27]<br/>[204, 37]]>, fillcolor="#e581391d"] ;
209 -> 210 ;
211 [label=<gini = 0.211<br/>samples = 219<br/>value = [[215, 4]<br/>[186, 33]<br/>[207, 12]<br/>[123, 96]<br/>[204, 15]<br/>[194, 25]<br/>[185, 34]]>, fillcolor="#e5813920"] ;
210 -> 211 ;
212 [label=<gini = 0.233<br/>samples = 22<br/>value = [[19, 3]<br/>[19, 3]<br/>[19, 3]<br/>[15, 7]<br/>[21, 1]<br/>[20, 2]<br/>[19, 3]]>, fillcolor="#e581390a"] ;
210 -> 212 ;
213 [label=<X<SUB>22</SUB> &le; 0.5<br/>gini = 0.143<br/>samples = 6<br/>value = [[5, 1]<br/>[5, 1]<br/>[6, 0]<br/>[2, 4]<br/>[6, 0]<br/>[6, 0]<br/>[6, 0]]>, fillcolor="#e5813969"] ;
209 -> 213 ;
214 [label=<gini = 0.179<br/>samples = 4<br/>value = [[3, 1]<br/>[3, 1]<br/>[4, 0]<br/>[2, 2]<br/>[4, 0]<br/>[4, 0]<br/>[4, 0]]>, fillcolor="#e5813943"] ;
213 -> 214 ;
215 [label=<gini = 0.0<br/>samples = 2<br/>value = [[2, 0]<br/>[2, 0]<br/>[2, 0]<br/>[0, 2]<br/>[2, 0]<br/>[2, 0]<br/>[2, 0]]>, fillcolor="#e58139ff"] ;
213 -> 215 ;
216 [label=<gini = 0.127<br/>samples = 3<br/>value = [[3, 0]<br/>[3, 0]<br/>[3, 0]<br/>[2, 1]<br/>[3, 0]<br/>[3, 0]<br/>[1, 2]]>, fillcolor="#e5813979"] ;
208 -> 216 ;
217 [label=<X<SUB>3</SUB> &le; 0.5<br/>gini = 0.193<br/>samples = 47<br/>value = [[45, 2]<br/>[43, 4]<br/>[44, 3]<br/>[22, 25]<br/>[42, 5]<br/>[45, 2]<br/>[41, 6]]>, fillcolor="#e5813934"] ;
191 -> 217 ;
218 [label=<X<SUB>22</SUB> &le; 0.5<br/>gini = 0.19<br/>samples = 46<br/>value = [[44, 2]<br/>[42, 4]<br/>[43, 3]<br/>[21, 25]<br/>[42, 4]<br/>[44, 2]<br/>[40, 6]]>, fillcolor="#e5813937"] ;
217 -> 218 ;
219 [label=<X<SUB>0</SUB> &le; 0.5<br/>gini = 0.195<br/>samples = 42<br/>value = [[40, 2]<br/>[38, 4]<br/>[39, 3]<br/>[20, 22]<br/>[39, 3]<br/>[40, 2]<br/>[36, 6]]>, fillcolor="#e5813932"] ;
218 -> 219 ;
220 [label=<X<SUB>7</SUB> &le; 0.5<br/>gini = 0.185<br/>samples = 22<br/>value = [[20, 2]<br/>[21, 1]<br/>[20, 2]<br/>[10, 12]<br/>[21, 1]<br/>[22, 0]<br/>[18, 4]]>, fillcolor="#e581393c"] ;
219 -> 220 ;
221 [label=<gini = 0.19<br/>samples = 21<br/>value = [[19, 2]<br/>[20, 1]<br/>[19, 2]<br/>[10, 11]<br/>[20, 1]<br/>[21, 0]<br/>[17, 4]]>, fillcolor="#e5813936"] ;
220 -> 221 ;
222 [label=<gini = 0.0<br/>samples = 1<br/>value = [[1, 0]<br/>[1, 0]<br/>[1, 0]<br/>[0, 1]<br/>[1, 0]<br/>[1, 0]<br/>[1, 0]]>, fillcolor="#e58139ff"] ;
220 -> 222 ;
223 [label=<gini = 0.199<br/>samples = 20<br/>value = [[20, 0]<br/>[17, 3]<br/>[19, 1]<br/>[10, 10]<br/>[18, 2]<br/>[18, 2]<br/>[18, 2]]>, fillcolor="#e581392e"] ;
219 -> 223 ;
224 [label=<gini = 0.107<br/>samples = 4<br/>value = [[4, 0]<br/>[4, 0]<br/>[4, 0]<br/>[1, 3]<br/>[3, 1]<br/>[4, 0]<br/>[4, 0]]>, fillcolor="#e581398e"] ;
218 -> 224 ;
225 [label=<gini = 0.0<br/>samples = 1<br/>value = [[1, 0]<br/>[1, 0]<br/>[1, 0]<br/>[1, 0]<br/>[0, 1]<br/>[1, 0]<br/>[1, 0]]>, fillcolor="#e58139ff"] ;
217 -> 225 ;
226 [label=<gini = 0.0<br/>samples = 4<br/>value = [[4, 0]<br/>[4, 0]<br/>[4, 0]<br/>[0, 4]<br/>[4, 0]<br/>[4, 0]<br/>[4, 0]]>, fillcolor="#e58139ff"] ;
190 -> 226 ;
227 [label=<X<SUB>6</SUB> &le; 0.5<br/>gini = 0.212<br/>samples = 149<br/>value = [[149, 0]<br/>[122, 27]<br/>[142, 7]<br/>[88, 61]<br/>[135, 14]<br/>[140, 9]<br/>[118, 31]]>, fillcolor="#e5813920"] ;
189 -> 227 ;
228 [label=<X<SUB>3</SUB> &le; 0.5<br/>gini = 0.207<br/>samples = 108<br/>value = [[108, 0]<br/>[91, 17]<br/>[103, 5]<br/>[60, 48]<br/>[98, 10]<br/>[101, 7]<br/>[87, 21]]>, fillcolor="#e5813925"] ;
227 -> 228 ;
229 [label=<X<SUB>7</SUB> &le; 0.5<br/>gini = 0.199<br/>samples = 39<br/>value = [[39, 0]<br/>[30, 9]<br/>[39, 0]<br/>[22, 17]<br/>[36, 3]<br/>[38, 1]<br/>[30, 9]]>, fillcolor="#e581392d"] ;
228 -> 229 ;
230 [label=<X<SUB>22</SUB> &le; 0.5<br/>gini = 0.197<br/>samples = 20<br/>value = [[20, 0]<br/>[15, 5]<br/>[20, 0]<br/>[13, 7]<br/>[20, 0]<br/>[19, 1]<br/>[13, 7]]>, fillcolor="#e581392f"] ;
229 -> 230 ;
231 [label=<X<SUB>0</SUB> &le; 0.5<br/>gini = 0.19<br/>samples = 15<br/>value = [[15, 0]<br/>[12, 3]<br/>[15, 0]<br/>[11, 4]<br/>[15, 0]<br/>[14, 1]<br/>[8, 7]]>, fillcolor="#e5813936"] ;
230 -> 231 ;
232 [label=<X<SUB>10</SUB> &le; 0.5<br/>gini = 0.189<br/>samples = 10<br/>value = [[10, 0]<br/>[7, 3]<br/>[10, 0]<br/>[7, 3]<br/>[10, 0]<br/>[10, 0]<br/>[6, 4]]>, fillcolor="#e5813938"] ;
231 -> 232 ;
233 [label=<gini = 0.187<br/>samples = 7<br/>value = [[7, 0]<br/>[5, 2]<br/>[7, 0]<br/>[5, 2]<br/>[7, 0]<br/>[7, 0]<br/>[4, 3]]>, fillcolor="#e581393a"] ;
232 -> 233 ;
234 [label=<gini = 0.19<br/>samples = 3<br/>value = [[3, 0]<br/>[2, 1]<br/>[3, 0]<br/>[2, 1]<br/>[3, 0]<br/>[3, 0]<br/>[2, 1]]>, fillcolor="#e5813936"] ;
232 -> 234 ;
235 [label=<gini = 0.16<br/>samples = 5<br/>value = [[5, 0]<br/>[5, 0]<br/>[5, 0]<br/>[4, 1]<br/>[5, 0]<br/>[4, 1]<br/>[2, 3]]>, fillcolor="#e5813956"] ;
231 -> 235 ;
236 [label=<gini = 0.137<br/>samples = 5<br/>value = [[5, 0]<br/>[3, 2]<br/>[5, 0]<br/>[2, 3]<br/>[5, 0]<br/>[5, 0]<br/>[5, 0]]>, fillcolor="#e581396f"] ;
230 -> 236 ;
237 [label=<X<SUB>4</SUB> &le; 0.5<br/>gini = 0.184<br/>samples = 19<br/>value = [[19, 0]<br/>[15, 4]<br/>[19, 0]<br/>[9, 10]<br/>[16, 3]<br/>[19, 0]<br/>[17, 2]]>, fillcolor="#e581393e"] ;
229 -> 237 ;
238 [label=<gini = 0.117<br/>samples = 7<br/>value = [[7, 0]<br/>[5, 2]<br/>[7, 0]<br/>[2, 5]<br/>[7, 0]<br/>[7, 0]<br/>[7, 0]]>, fillcolor="#e5813984"] ;
237 -> 238 ;
239 [label=<gini = 0.202<br/>samples = 12<br/>value = [[12, 0]<br/>[10, 2]<br/>[12, 0]<br/>[7, 5]<br/>[9, 3]<br/>[12, 0]<br/>[10, 2]]>, fillcolor="#e581392a"] ;
237 -> 239 ;
240 [label=<X<SUB>10</SUB> &le; 0.5<br/>gini = 0.209<br/>samples = 69<br/>value = [[69, 0]<br/>[61, 8]<br/>[64, 5]<br/>[38, 31]<br/>[62, 7]<br/>[63, 6]<br/>[57, 12]]>, fillcolor="#e5813923"] ;
228 -> 240 ;
241 [label=<X<SUB>4</SUB> &le; 0.5<br/>gini = 0.207<br/>samples = 68<br/>value = [[68, 0]<br/>[60, 8]<br/>[63, 5]<br/>[37, 31]<br/>[62, 6]<br/>[62, 6]<br/>[56, 12]]>, fillcolor="#e5813924"] ;
240 -> 241 ;
242 [label=<X<SUB>0</SUB> &le; 0.5<br/>gini = 0.207<br/>samples = 66<br/>value = [[66, 0]<br/>[58, 8]<br/>[62, 4]<br/>[36, 30]<br/>[60, 6]<br/>[60, 6]<br/>[54, 12]]>, fillcolor="#e5813925"] ;
241 -> 242 ;
243 [label=<X<SUB>22</SUB> &le; 0.5<br/>gini = 0.209<br/>samples = 65<br/>value = [[65, 0]<br/>[57, 8]<br/>[61, 4]<br/>[36, 29]<br/>[59, 6]<br/>[59, 6]<br/>[53, 12]]>, fillcolor="#e5813923"] ;
242 -> 243 ;
244 [label=<gini = 0.21<br/>samples = 59<br/>value = [[59, 0]<br/>[52, 7]<br/>[55, 4]<br/>[33, 26]<br/>[53, 6]<br/>[54, 5]<br/>[48, 11]]>, fillcolor="#e5813922"] ;
243 -> 244 ;
245 [label=<gini = 0.19<br/>samples = 6<br/>value = [[6, 0]<br/>[5, 1]<br/>[6, 0]<br/>[3, 3]<br/>[6, 0]<br/>[5, 1]<br/>[5, 1]]>, fillcolor="#e5813936"] ;
243 -> 245 ;
246 [label=<gini = 0.0<br/>samples = 1<br/>value = [[1, 0]<br/>[1, 0]<br/>[1, 0]<br/>[0, 1]<br/>[1, 0]<br/>[1, 0]<br/>[1, 0]]>, fillcolor="#e58139ff"] ;
242 -> 246 ;
247 [label=<gini = 0.143<br/>samples = 2<br/>value = [[2, 0]<br/>[2, 0]<br/>[1, 1]<br/>[1, 1]<br/>[2, 0]<br/>[2, 0]<br/>[2, 0]]>, fillcolor="#e5813969"] ;
241 -> 247 ;
248 [label=<gini = 0.0<br/>samples = 1<br/>value = [[1, 0]<br/>[1, 0]<br/>[1, 0]<br/>[1, 0]<br/>[0, 1]<br/>[1, 0]<br/>[1, 0]]>, fillcolor="#e58139ff"] ;
240 -> 248 ;
249 [label=<X<SUB>3</SUB> &le; 0.5<br/>gini = 0.219<br/>samples = 41<br/>value = [[41, 0]<br/>[31, 10]<br/>[39, 2]<br/>[28, 13]<br/>[37, 4]<br/>[39, 2]<br/>[31, 10]]>, fillcolor="#e5813918"] ;
227 -> 249 ;
250 [label=<X<SUB>0</SUB> &le; 0.5<br/>gini = 0.211<br/>samples = 30<br/>value = [[30, 0]<br/>[26, 4]<br/>[28, 2]<br/>[18, 12]<br/>[28, 2]<br/>[28, 2]<br/>[22, 8]]>, fillcolor="#e5813921"] ;
249 -> 250 ;
251 [label=<X<SUB>23</SUB> &le; 0.5<br/>gini = 0.207<br/>samples = 29<br/>value = [[29, 0]<br/>[25, 4]<br/>[27, 2]<br/>[17, 12]<br/>[27, 2]<br/>[28, 1]<br/>[21, 8]]>, fillcolor="#e5813925"] ;
250 -> 251 ;
252 [label=<gini = 0.143<br/>samples = 2<br/>value = [[2, 0]<br/>[2, 0]<br/>[2, 0]<br/>[2, 0]<br/>[2, 0]<br/>[1, 1]<br/>[1, 1]]>, fillcolor="#e5813969"] ;
251 -> 252 ;
253 [label=<gini = 0.201<br/>samples = 27<br/>value = [[27, 0]<br/>[23, 4]<br/>[25, 2]<br/>[15, 12]<br/>[25, 2]<br/>[27, 0]<br/>[20, 7]]>, fillcolor="#e581392c"] ;
251 -> 253 ;
254 [label=<gini = 0.0<br/>samples = 1<br/>value = [[1, 0]<br/>[1, 0]<br/>[1, 0]<br/>[1, 0]<br/>[1, 0]<br/>[0, 1]<br/>[1, 0]]>, fillcolor="#e58139ff"] ;
250 -> 254 ;
255 [label=<X<SUB>22</SUB> &le; 0.5<br/>gini = 0.179<br/>samples = 11<br/>value = [[11, 0]<br/>[5, 6]<br/>[11, 0]<br/>[10, 1]<br/>[9, 2]<br/>[11, 0]<br/>[9, 2]]>, fillcolor="#e5813942"] ;
249 -> 255 ;
256 [label=<gini = 0.189<br/>samples = 10<br/>value = [[10, 0]<br/>[5, 5]<br/>[10, 0]<br/>[9, 1]<br/>[8, 2]<br/>[10, 0]<br/>[8, 2]]>, fillcolor="#e5813938"] ;
255 -> 256 ;
257 [label=<gini = 0.0<br/>samples = 1<br/>value = [[1, 0]<br/>[0, 1]<br/>[1, 0]<br/>[1, 0]<br/>[1, 0]<br/>[1, 0]<br/>[1, 0]]>, fillcolor="#e58139ff"] ;
255 -> 257 ;
258 [label=<X<SUB>22</SUB> &le; 0.5<br/>gini = 0.218<br/>samples = 85<br/>value = [[85, 0]<br/>[75, 10]<br/>[82, 3]<br/>[53, 32]<br/>[73, 12]<br/>[76, 9]<br/>[66, 19]]>, fillcolor="#e581391a"] ;
188 -> 258 ;
259 [label=<X<SUB>13</SUB> &le; 0.5<br/>gini = 0.214<br/>samples = 79<br/>value = [[79, 0]<br/>[70, 9]<br/>[76, 3]<br/>[47, 32]<br/>[67, 12]<br/>[72, 7]<br/>[63, 16]]>, fillcolor="#e581391d"] ;
258 -> 259 ;
260 [label=<X<SUB>6</SUB> &le; 0.5<br/>gini = 0.214<br/>samples = 76<br/>value = [[76, 0]<br/>[67, 9]<br/>[73, 3]<br/>[45, 31]<br/>[66, 10]<br/>[69, 7]<br/>[60, 16]]>, fillcolor="#e581391e"] ;
259 -> 260 ;
261 [label=<X<SUB>3</SUB> &le; 0.5<br/>gini = 0.212<br/>samples = 72<br/>value = [[72, 0]<br/>[64, 8]<br/>[69, 3]<br/>[42, 30]<br/>[63, 9]<br/>[66, 6]<br/>[56, 16]]>, fillcolor="#e5813920"] ;
260 -> 261 ;
262 [label=<X<SUB>0</SUB> &le; 0.5<br/>gini = 0.213<br/>samples = 71<br/>value = [[71, 0]<br/>[63, 8]<br/>[68, 3]<br/>[42, 29]<br/>[62, 9]<br/>[65, 6]<br/>[55, 16]]>, fillcolor="#e581391f"] ;
261 -> 262 ;
263 [label=<gini = 0.214<br/>samples = 28<br/>value = [[28, 0]<br/>[25, 3]<br/>[26, 2]<br/>[17, 11]<br/>[25, 3]<br/>[26, 2]<br/>[21, 7]]>, fillcolor="#e581391d"] ;
262 -> 263 ;
264 [label=<gini = 0.211<br/>samples = 43<br/>value = [[43, 0]<br/>[38, 5]<br/>[42, 1]<br/>[25, 18]<br/>[37, 6]<br/>[39, 4]<br/>[34, 9]]>, fillcolor="#e5813921"] ;
262 -> 264 ;
265 [label=<gini = 0.0<br/>samples = 1<br/>value = [[1, 0]<br/>[1, 0]<br/>[1, 0]<br/>[0, 1]<br/>[1, 0]<br/>[1, 0]<br/>[1, 0]]>, fillcolor="#e58139ff"] ;
261 -> 265 ;
266 [label=<X<SUB>0</SUB> &le; 0.5<br/>gini = 0.214<br/>samples = 4<br/>value = [[4, 0]<br/>[3, 1]<br/>[4, 0]<br/>[3, 1]<br/>[3, 1]<br/>[3, 1]<br/>[4, 0]]>, fillcolor="#e581391d"] ;
260 -> 266 ;
267 [label=<gini = 0.0<br/>samples = 1<br/>value = [[1, 0]<br/>[1, 0]<br/>[1, 0]<br/>[1, 0]<br/>[1, 0]<br/>[0, 1]<br/>[1, 0]]>, fillcolor="#e58139ff"] ;
266 -> 267 ;
268 [label=<gini = 0.19<br/>samples = 3<br/>value = [[3, 0]<br/>[2, 1]<br/>[3, 0]<br/>[2, 1]<br/>[2, 1]<br/>[3, 0]<br/>[3, 0]]>, fillcolor="#e5813936"] ;
266 -> 268 ;
269 [label=<X<SUB>4</SUB> &le; 0.5<br/>gini = 0.127<br/>samples = 3<br/>value = [[3, 0]<br/>[3, 0]<br/>[3, 0]<br/>[2, 1]<br/>[1, 2]<br/>[3, 0]<br/>[3, 0]]>, fillcolor="#e5813979"] ;
259 -> 269 ;
270 [label=<X<SUB>0</SUB> &le; 0.5<br/>gini = 0.143<br/>samples = 2<br/>value = [[2, 0]<br/>[2, 0]<br/>[2, 0]<br/>[1, 1]<br/>[1, 1]<br/>[2, 0]<br/>[2, 0]]>, fillcolor="#e5813969"] ;
269 -> 270 ;
271 [label=<gini = 0.0<br/>samples = 1<br/>value = [[1, 0]<br/>[1, 0]<br/>[1, 0]<br/>[0, 1]<br/>[1, 0]<br/>[1, 0]<br/>[1, 0]]>, fillcolor="#e58139ff"] ;
270 -> 271 ;
272 [label=<gini = 0.0<br/>samples = 1<br/>value = [[1, 0]<br/>[1, 0]<br/>[1, 0]<br/>[1, 0]<br/>[0, 1]<br/>[1, 0]<br/>[1, 0]]>, fillcolor="#e58139ff"] ;
270 -> 272 ;
273 [label=<gini = 0.0<br/>samples = 1<br/>value = [[1, 0]<br/>[1, 0]<br/>[1, 0]<br/>[1, 0]<br/>[0, 1]<br/>[1, 0]<br/>[1, 0]]>, fillcolor="#e58139ff"] ;
269 -> 273 ;
274 [label=<X<SUB>3</SUB> &le; 0.5<br/>gini = 0.175<br/>samples = 6<br/>value = [[6, 0]<br/>[5, 1]<br/>[6, 0]<br/>[6, 0]<br/>[6, 0]<br/>[4, 2]<br/>[3, 3]]>, fillcolor="#e5813947"] ;
258 -> 274 ;
275 [label=<X<SUB>0</SUB> &le; 0.5<br/>gini = 0.183<br/>samples = 5<br/>value = [[5, 0]<br/>[4, 1]<br/>[5, 0]<br/>[5, 0]<br/>[5, 0]<br/>[3, 2]<br/>[3, 2]]>, fillcolor="#e581393e"] ;
274 -> 275 ;
276 [label=<gini = 0.0<br/>samples = 1<br/>value = [[1, 0]<br/>[1, 0]<br/>[1, 0]<br/>[1, 0]<br/>[1, 0]<br/>[0, 1]<br/>[1, 0]]>, fillcolor="#e58139ff"] ;
275 -> 276 ;
277 [label=<gini = 0.179<br/>samples = 4<br/>value = [[4, 0]<br/>[3, 1]<br/>[4, 0]<br/>[4, 0]<br/>[4, 0]<br/>[3, 1]<br/>[2, 2]]>, fillcolor="#e5813943"] ;
275 -> 277 ;
278 [label=<gini = 0.0<br/>samples = 1<br/>value = [[1, 0]<br/>[1, 0]<br/>[1, 0]<br/>[1, 0]<br/>[1, 0]<br/>[1, 0]<br/>[0, 1]]>, fillcolor="#e58139ff"] ;
274 -> 278 ;
279 [label=<X<SUB>3</SUB> &le; 0.5<br/>gini = 0.219<br/>samples = 584<br/>value = [[575, 9]<br/>[491, 93]<br/>[549, 35]<br/>[368, 216]<br/>[543, 41]<br/>[528, 56]<br/>[450, 134]]>, fillcolor="#e5813918"] ;
187 -> 279 ;
280 [label=<X<SUB>4</SUB> &le; 0.5<br/>gini = 0.218<br/>samples = 471<br/>value = [[469, 2]<br/>[395, 76]<br/>[442, 29]<br/>[292, 179]<br/>[436, 35]<br/>[424, 47]<br/>[368, 103]]>, fillcolor="#e581391a"] ;
279 -> 280 ;
281 [label=<X<SUB>10</SUB> &le; 0.5<br/>gini = 0.218<br/>samples = 447<br/>value = [[445, 2]<br/>[375, 72]<br/>[419, 28]<br/>[280, 167]<br/>[416, 31]<br/>[400, 47]<br/>[347, 100]]>, fillcolor="#e5813919"] ;
280 -> 281 ;
282 [label=<X<SUB>23</SUB> &le; 0.5<br/>gini = 0.218<br/>samples = 446<br/>value = [[444, 2]<br/>[375, 71]<br/>[418, 28]<br/>[279, 167]<br/>[415, 31]<br/>[399, 47]<br/>[346, 100]]>, fillcolor="#e5813919"] ;
281 -> 282 ;
283 [label=<X<SUB>11</SUB> &le; 0.5<br/>gini = 0.224<br/>samples = 46<br/>value = [[46, 0]<br/>[37, 9]<br/>[40, 6]<br/>[30, 16]<br/>[43, 3]<br/>[41, 5]<br/>[39, 7]]>, fillcolor="#e5813913"] ;
282 -> 283 ;
284 [label=<X<SUB>7</SUB> &le; 0.5<br/>gini = 0.225<br/>samples = 42<br/>value = [[42, 0]<br/>[33, 9]<br/>[37, 5]<br/>[28, 14]<br/>[39, 3]<br/>[38, 4]<br/>[35, 7]]>, fillcolor="#e5813912"] ;
283 -> 284 ;
285 [label=<X<SUB>15</SUB> &le; 0.5<br/>gini = 0.222<br/>samples = 38<br/>value = [[38, 0]<br/>[29, 9]<br/>[34, 4]<br/>[25, 13]<br/>[36, 2]<br/>[34, 4]<br/>[32, 6]]>, fillcolor="#e5813915"] ;
284 -> 285 ;
286 [label=<X<SUB>6</SUB> &le; 0.5<br/>gini = 0.179<br/>samples = 4<br/>value = [[4, 0]<br/>[2, 2]<br/>[4, 0]<br/>[3, 1]<br/>[4, 0]<br/>[4, 0]<br/>[3, 1]]>, fillcolor="#e5813943"] ;
285 -> 286 ;
287 [label=<gini = 0.143<br/>samples = 2<br/>value = [[2, 0]<br/>[1, 1]<br/>[2, 0]<br/>[2, 0]<br/>[2, 0]<br/>[2, 0]<br/>[1, 1]]>, fillcolor="#e5813969"] ;
286 -> 287 ;
288 [label=<gini = 0.143<br/>samples = 2<br/>value = [[2, 0]<br/>[1, 1]<br/>[2, 0]<br/>[1, 1]<br/>[2, 0]<br/>[2, 0]<br/>[2, 0]]>, fillcolor="#e5813969"] ;
286 -> 288 ;
289 [label=<X<SUB>6</SUB> &le; 0.5<br/>gini = 0.223<br/>samples = 34<br/>value = [[34, 0]<br/>[27, 7]<br/>[30, 4]<br/>[22, 12]<br/>[32, 2]<br/>[30, 4]<br/>[29, 5]]>, fillcolor="#e5813914"] ;
285 -> 289 ;
290 [label=<gini = 0.219<br/>samples = 32<br/>value = [[32, 0]<br/>[25, 7]<br/>[29, 3]<br/>[20, 12]<br/>[30, 2]<br/>[29, 3]<br/>[27, 5]]>, fillcolor="#e5813919"] ;
289 -> 290 ;
291 [label=<gini = 0.143<br/>samples = 2<br/>value = [[2, 0]<br/>[2, 0]<br/>[1, 1]<br/>[2, 0]<br/>[2, 0]<br/>[1, 1]<br/>[2, 0]]>, fillcolor="#e5813969"] ;
289 -> 291 ;
292 [label=<X<SUB>13</SUB> &le; 0.5<br/>gini = 0.214<br/>samples = 4<br/>value = [[4, 0]<br/>[4, 0]<br/>[3, 1]<br/>[3, 1]<br/>[3, 1]<br/>[4, 0]<br/>[3, 1]]>, fillcolor="#e581391d"] ;
284 -> 292 ;
293 [label=<gini = 0.0<br/>samples = 1<br/>value = [[1, 0]<br/>[1, 0]<br/>[1, 0]<br/>[1, 0]<br/>[0, 1]<br/>[1, 0]<br/>[1, 0]]>, fillcolor="#e58139ff"] ;
292 -> 293 ;
294 [label=<X<SUB>6</SUB> &le; 0.5<br/>gini = 0.19<br/>samples = 3<br/>value = [[3, 0]<br/>[3, 0]<br/>[2, 1]<br/>[2, 1]<br/>[3, 0]<br/>[3, 0]<br/>[2, 1]]>, fillcolor="#e5813936"] ;
292 -> 294 ;
295 [label=<gini = 0.143<br/>samples = 2<br/>value = [[2, 0]<br/>[2, 0]<br/>[1, 1]<br/>[1, 1]<br/>[2, 0]<br/>[2, 0]<br/>[2, 0]]>, fillcolor="#e5813969"] ;
294 -> 295 ;
296 [label=<gini = 0.0<br/>samples = 1<br/>value = [[1, 0]<br/>[1, 0]<br/>[1, 0]<br/>[1, 0]<br/>[1, 0]<br/>[1, 0]<br/>[0, 1]]>, fillcolor="#e58139ff"] ;
294 -> 296 ;
297 [label=<X<SUB>0</SUB> &le; 0.5<br/>gini = 0.179<br/>samples = 4<br/>value = [[4, 0]<br/>[4, 0]<br/>[3, 1]<br/>[2, 2]<br/>[4, 0]<br/>[3, 1]<br/>[4, 0]]>, fillcolor="#e5813943"] ;
283 -> 297 ;
298 [label=<gini = 0.0<br/>samples = 1<br/>value = [[1, 0]<br/>[1, 0]<br/>[0, 1]<br/>[1, 0]<br/>[1, 0]<br/>[1, 0]<br/>[1, 0]]>, fillcolor="#e58139ff"] ;
297 -> 298 ;
299 [label=<gini = 0.127<br/>samples = 3<br/>value = [[3, 0]<br/>[3, 0]<br/>[3, 0]<br/>[1, 2]<br/>[3, 0]<br/>[2, 1]<br/>[3, 0]]>, fillcolor="#e5813979"] ;
297 -> 299 ;
300 [label=<X<SUB>7</SUB> &le; 0.5<br/>gini = 0.217<br/>samples = 400<br/>value = [[398, 2]<br/>[338, 62]<br/>[378, 22]<br/>[249, 151]<br/>[372, 28]<br/>[358, 42]<br/>[307, 93]]>, fillcolor="#e581391a"] ;
282 -> 300 ;
301 [label=<X<SUB>11</SUB> &le; 0.5<br/>gini = 0.217<br/>samples = 388<br/>value = [[386, 2]<br/>[329, 59]<br/>[368, 20]<br/>[240, 148]<br/>[360, 28]<br/>[347, 41]<br/>[298, 90]]>, fillcolor="#e581391b"] ;
300 -> 301 ;
302 [label=<X<SUB>0</SUB> &le; 0.5<br/>gini = 0.218<br/>samples = 327<br/>value = [[325, 2]<br/>[275, 52]<br/>[310, 17]<br/>[204, 123]<br/>[301, 26]<br/>[294, 33]<br/>[253, 74]]>, fillcolor="#e5813919"] ;
301 -> 302 ;
303 [label=<X<SUB>13</SUB> &le; 0.5<br/>gini = 0.215<br/>samples = 51<br/>value = [[51, 0]<br/>[41, 10]<br/>[48, 3]<br/>[31, 20]<br/>[47, 4]<br/>[47, 4]<br/>[41, 10]]>, fillcolor="#e581391c"] ;
302 -> 303 ;
304 [label=<gini = 0.22<br/>samples = 27<br/>value = [[27, 0]<br/>[22, 5]<br/>[25, 2]<br/>[17, 10]<br/>[25, 2]<br/>[24, 3]<br/>[22, 5]]>, fillcolor="#e5813917"] ;
303 -> 304 ;
305 [label=<gini = 0.208<br/>samples = 24<br/>value = [[24, 0]<br/>[19, 5]<br/>[23, 1]<br/>[14, 10]<br/>[22, 2]<br/>[23, 1]<br/>[19, 5]]>, fillcolor="#e5813924"] ;
303 -> 305 ;
306 [label=<X<SUB>13</SUB> &le; 0.5<br/>gini = 0.218<br/>samples = 276<br/>value = [[274, 2]<br/>[234, 42]<br/>[262, 14]<br/>[173, 103]<br/>[254, 22]<br/>[247, 29]<br/>[212, 64]]>, fillcolor="#e5813919"] ;
302 -> 306 ;
307 [label=<X<SUB>6</SUB> &le; 0.5<br/>gini = 0.218<br/>samples = 264<br/>value = [[262, 2]<br/>[222, 42]<br/>[252, 12]<br/>[166, 98]<br/>[242, 22]<br/>[237, 27]<br/>[203, 61]]>, fillcolor="#e5813919"] ;
306 -> 307 ;
308 [label=<gini = 0.219<br/>samples = 243<br/>value = [[241, 2]<br/>[204, 39]<br/>[231, 12]<br/>[153, 90]<br/>[223, 20]<br/>[219, 24]<br/>[187, 56]]>, fillcolor="#e5813919"] ;
307 -> 308 ;
309 [label=<gini = 0.214<br/>samples = 21<br/>value = [[21, 0]<br/>[18, 3]<br/>[21, 0]<br/>[13, 8]<br/>[19, 2]<br/>[18, 3]<br/>[16, 5]]>, fillcolor="#e581391e"] ;
307 -> 309 ;
310 [label=<X<SUB>6</SUB> &le; 0.5<br/>gini = 0.202<br/>samples = 12<br/>value = [[12, 0]<br/>[12, 0]<br/>[10, 2]<br/>[7, 5]<br/>[12, 0]<br/>[10, 2]<br/>[9, 3]]>, fillcolor="#e581392a"] ;
306 -> 310 ;
311 [label=<gini = 0.189<br/>samples = 10<br/>value = [[10, 0]<br/>[10, 0]<br/>[8, 2]<br/>[5, 5]<br/>[10, 0]<br/>[8, 2]<br/>[9, 1]]>, fillcolor="#e5813938"] ;
310 -> 311 ;
312 [label=<gini = 0.0<br/>samples = 2<br/>value = [[2, 0]<br/>[2, 0]<br/>[2, 0]<br/>[2, 0]<br/>[2, 0]<br/>[2, 0]<br/>[0, 2]]>, fillcolor="#e58139ff"] ;
310 -> 312 ;
313 [label=<X<SUB>6</SUB> &le; 0.5<br/>gini = 0.208<br/>samples = 61<br/>value = [[61, 0]<br/>[54, 7]<br/>[58, 3]<br/>[36, 25]<br/>[59, 2]<br/>[53, 8]<br/>[45, 16]]>, fillcolor="#e5813923"] ;
301 -> 313 ;
314 [label=<X<SUB>13</SUB> &le; 0.5<br/>gini = 0.205<br/>samples = 58<br/>value = [[58, 0]<br/>[51, 7]<br/>[57, 1]<br/>[34, 24]<br/>[56, 2]<br/>[50, 8]<br/>[42, 16]]>, fillcolor="#e5813927"] ;
313 -> 314 ;
315 [label=<X<SUB>0</SUB> &le; 0.5<br/>gini = 0.208<br/>samples = 56<br/>value = [[56, 0]<br/>[49, 7]<br/>[55, 1]<br/>[34, 22]<br/>[54, 2]<br/>[48, 8]<br/>[40, 16]]>, fillcolor="#e5813924"] ;
314 -> 315 ;
316 [label=<gini = 0.21<br/>samples = 26<br/>value = [[26, 0]<br/>[24, 2]<br/>[26, 0]<br/>[18, 8]<br/>[24, 2]<br/>[21, 5]<br/>[17, 9]]>, fillcolor="#e5813921"] ;
315 -> 316 ;
317 [label=<gini = 0.197<br/>samples = 30<br/>value = [[30, 0]<br/>[25, 5]<br/>[29, 1]<br/>[16, 14]<br/>[30, 0]<br/>[27, 3]<br/>[23, 7]]>, fillcolor="#e5813930"] ;
315 -> 317 ;
318 [label=<gini = 0.0<br/>samples = 2<br/>value = [[2, 0]<br/>[2, 0]<br/>[2, 0]<br/>[0, 2]<br/>[2, 0]<br/>[2, 0]<br/>[2, 0]]>, fillcolor="#e58139ff"] ;
314 -> 318 ;
319 [label=<gini = 0.127<br/>samples = 3<br/>value = [[3, 0]<br/>[3, 0]<br/>[1, 2]<br/>[2, 1]<br/>[3, 0]<br/>[3, 0]<br/>[3, 0]]>, fillcolor="#e5813979"] ;
313 -> 319 ;
320 [label=<X<SUB>6</SUB> &le; 0.5<br/>gini = 0.222<br/>samples = 12<br/>value = [[12, 0]<br/>[9, 3]<br/>[10, 2]<br/>[9, 3]<br/>[12, 0]<br/>[11, 1]<br/>[9, 3]]>, fillcolor="#e5813915"] ;
300 -> 320 ;
321 [label=<X<SUB>13</SUB> &le; 0.5<br/>gini = 0.222<br/>samples = 11<br/>value = [[11, 0]<br/>[8, 3]<br/>[9, 2]<br/>[8, 3]<br/>[11, 0]<br/>[10, 1]<br/>[9, 2]]>, fillcolor="#e5813915"] ;
320 -> 321 ;
322 [label=<gini = 0.19<br/>samples = 3<br/>value = [[3, 0]<br/>[2, 1]<br/>[2, 1]<br/>[2, 1]<br/>[3, 0]<br/>[3, 0]<br/>[3, 0]]>, fillcolor="#e5813936"] ;
321 -> 322 ;
323 [label=<gini = 0.223<br/>samples = 8<br/>value = [[8, 0]<br/>[6, 2]<br/>[7, 1]<br/>[6, 2]<br/>[8, 0]<br/>[7, 1]<br/>[6, 2]]>, fillcolor="#e5813914"] ;
321 -> 323 ;
324 [label=<gini = 0.0<br/>samples = 1<br/>value = [[1, 0]<br/>[1, 0]<br/>[1, 0]<br/>[1, 0]<br/>[1, 0]<br/>[1, 0]<br/>[0, 1]]>, fillcolor="#e58139ff"] ;
320 -> 324 ;
325 [label=<gini = 0.0<br/>samples = 1<br/>value = [[1, 0]<br/>[0, 1]<br/>[1, 0]<br/>[1, 0]<br/>[1, 0]<br/>[1, 0]<br/>[1, 0]]>, fillcolor="#e58139ff"] ;
281 -> 325 ;
326 [label=<X<SUB>7</SUB> &le; 0.5<br/>gini = 0.193<br/>samples = 24<br/>value = [[24, 0]<br/>[20, 4]<br/>[23, 1]<br/>[12, 12]<br/>[20, 4]<br/>[24, 0]<br/>[21, 3]]>, fillcolor="#e5813933"] ;
280 -> 326 ;
327 [label=<X<SUB>0</SUB> &le; 0.5<br/>gini = 0.217<br/>samples = 10<br/>value = [[10, 0]<br/>[8, 2]<br/>[9, 1]<br/>[7, 3]<br/>[7, 3]<br/>[10, 0]<br/>[9, 1]]>, fillcolor="#e581391a"] ;
326 -> 327 ;
328 [label=<X<SUB>13</SUB> &le; 0.5<br/>gini = 0.206<br/>samples = 5<br/>value = [[5, 0]<br/>[3, 2]<br/>[4, 1]<br/>[5, 0]<br/>[4, 1]<br/>[5, 0]<br/>[4, 1]]>, fillcolor="#e5813926"] ;
327 -> 328 ;
329 [label=<gini = 0.143<br/>samples = 2<br/>value = [[2, 0]<br/>[1, 1]<br/>[2, 0]<br/>[2, 0]<br/>[2, 0]<br/>[2, 0]<br/>[1, 1]]>, fillcolor="#e5813969"] ;
328 -> 329 ;
330 [label=<gini = 0.19<br/>samples = 3<br/>value = [[3, 0]<br/>[2, 1]<br/>[2, 1]<br/>[3, 0]<br/>[2, 1]<br/>[3, 0]<br/>[3, 0]]>, fillcolor="#e5813936"] ;
328 -> 330 ;
331 [label=<X<SUB>22</SUB> &le; 0.5<br/>gini = 0.137<br/>samples = 5<br/>value = [[5, 0]<br/>[5, 0]<br/>[5, 0]<br/>[2, 3]<br/>[3, 2]<br/>[5, 0]<br/>[5, 0]]>, fillcolor="#e581396f"] ;
327 -> 331 ;
332 [label=<gini = 0.143<br/>samples = 4<br/>value = [[4, 0]<br/>[4, 0]<br/>[4, 0]<br/>[2, 2]<br/>[2, 2]<br/>[4, 0]<br/>[4, 0]]>, fillcolor="#e5813969"] ;
331 -> 332 ;
333 [label=<gini = 0.0<br/>samples = 1<br/>value = [[1, 0]<br/>[1, 0]<br/>[1, 0]<br/>[0, 1]<br/>[1, 0]<br/>[1, 0]<br/>[1, 0]]>, fillcolor="#e58139ff"] ;
331 -> 333 ;
334 [label=<X<SUB>6</SUB> &le; 0.5<br/>gini = 0.155<br/>samples = 14<br/>value = [[14, 0]<br/>[12, 2]<br/>[14, 0]<br/>[5, 9]<br/>[13, 1]<br/>[14, 0]<br/>[12, 2]]>, fillcolor="#e581395c"] ;
326 -> 334 ;
335 [label=<X<SUB>13</SUB> &le; 0.5<br/>gini = 0.139<br/>samples = 13<br/>value = [[13, 0]<br/>[12, 1]<br/>[13, 0]<br/>[4, 9]<br/>[12, 1]<br/>[13, 0]<br/>[11, 2]]>, fillcolor="#e581396d"] ;
334 -> 335 ;
336 [label=<gini = 0.0<br/>samples = 3<br/>value = [[3, 0]<br/>[3, 0]<br/>[3, 0]<br/>[0, 3]<br/>[3, 0]<br/>[3, 0]<br/>[3, 0]]>, fillcolor="#e58139ff"] ;
335 -> 336 ;
337 [label=<gini = 0.166<br/>samples = 10<br/>value = [[10, 0]<br/>[9, 1]<br/>[10, 0]<br/>[4, 6]<br/>[9, 1]<br/>[10, 0]<br/>[8, 2]]>, fillcolor="#e5813950"] ;
335 -> 337 ;
338 [label=<gini = 0.0<br/>samples = 1<br/>value = [[1, 0]<br/>[0, 1]<br/>[1, 0]<br/>[1, 0]<br/>[1, 0]<br/>[1, 0]<br/>[1, 0]]>, fillcolor="#e58139ff"] ;
334 -> 338 ;
339 [label=<X<SUB>0</SUB> &le; 0.5<br/>gini = 0.223<br/>samples = 113<br/>value = [[106, 7]<br/>[96, 17]<br/>[107, 6]<br/>[76, 37]<br/>[107, 6]<br/>[104, 9]<br/>[82, 31]]>, fillcolor="#e5813915"] ;
279 -> 339 ;
340 [label=<X<SUB>12</SUB> &le; 0.5<br/>gini = 0.225<br/>samples = 106<br/>value = [[99, 7]<br/>[89, 17]<br/>[100, 6]<br/>[74, 32]<br/>[101, 5]<br/>[97, 9]<br/>[76, 30]]>, fillcolor="#e5813912"] ;
339 -> 340 ;
341 [label=<X<SUB>22</SUB> &le; 0.5<br/>gini = 0.224<br/>samples = 105<br/>value = [[98, 7]<br/>[89, 16]<br/>[99, 6]<br/>[73, 32]<br/>[100, 5]<br/>[96, 9]<br/>[75, 30]]>, fillcolor="#e5813913"] ;
340 -> 341 ;
342 [label=<X<SUB>6</SUB> &le; 0.5<br/>gini = 0.224<br/>samples = 96<br/>value = [[89, 7]<br/>[80, 16]<br/>[92, 4]<br/>[67, 29]<br/>[92, 4]<br/>[87, 9]<br/>[69, 27]]>, fillcolor="#e5813913"] ;
341 -> 342 ;
343 [label=<X<SUB>11</SUB> &le; 0.5<br/>gini = 0.222<br/>samples = 85<br/>value = [[80, 5]<br/>[72, 13]<br/>[81, 4]<br/>[59, 26]<br/>[82, 3]<br/>[76, 9]<br/>[60, 25]]>, fillcolor="#e5813915"] ;
342 -> 343 ;
344 [label=<X<SUB>7</SUB> &le; 0.5<br/>gini = 0.223<br/>samples = 84<br/>value = [[79, 5]<br/>[71, 13]<br/>[80, 4]<br/>[58, 26]<br/>[81, 3]<br/>[75, 9]<br/>[60, 24]]>, fillcolor="#e5813914"] ;
343 -> 344 ;
345 [label=<X<SUB>4</SUB> &le; 0.5<br/>gini = 0.221<br/>samples = 80<br/>value = [[76, 4]<br/>[67, 13]<br/>[76, 4]<br/>[55, 25]<br/>[78, 2]<br/>[71, 9]<br/>[57, 23]]>, fillcolor="#e5813916"] ;
344 -> 345 ;
346 [label=<X<SUB>15</SUB> &le; 0.5<br/>gini = 0.223<br/>samples = 78<br/>value = [[74, 4]<br/>[65, 13]<br/>[74, 4]<br/>[54, 24]<br/>[76, 2]<br/>[69, 9]<br/>[56, 22]]>, fillcolor="#e5813915"] ;
345 -> 346 ;
347 [label=<gini = 0.221<br/>samples = 55<br/>value = [[52, 3]<br/>[46, 9]<br/>[52, 3]<br/>[39, 16]<br/>[54, 1]<br/>[49, 6]<br/>[38, 17]]>, fillcolor="#e5813916"] ;
346 -> 347 ;
348 [label=<gini = 0.223<br/>samples = 23<br/>value = [[22, 1]<br/>[19, 4]<br/>[22, 1]<br/>[15, 8]<br/>[22, 1]<br/>[20, 3]<br/>[18, 5]]>, fillcolor="#e5813915"] ;
346 -> 348 ;
349 [label=<gini = 0.143<br/>samples = 2<br/>value = [[2, 0]<br/>[2, 0]<br/>[2, 0]<br/>[1, 1]<br/>[2, 0]<br/>[2, 0]<br/>[1, 1]]>, fillcolor="#e5813969"] ;
345 -> 349 ;
350 [label=<X<SUB>15</SUB> &le; 0.5<br/>gini = 0.214<br/>samples = 4<br/>value = [[3, 1]<br/>[4, 0]<br/>[4, 0]<br/>[3, 1]<br/>[3, 1]<br/>[4, 0]<br/>[3, 1]]>, fillcolor="#e581391d"] ;
344 -> 350 ;
351 [label=<gini = 0.19<br/>samples = 3<br/>value = [[3, 0]<br/>[3, 0]<br/>[3, 0]<br/>[2, 1]<br/>[2, 1]<br/>[3, 0]<br/>[2, 1]]>, fillcolor="#e5813936"] ;
350 -> 351 ;
352 [label=<gini = 0.0<br/>samples = 1<br/>value = [[0, 1]<br/>[1, 0]<br/>[1, 0]<br/>[1, 0]<br/>[1, 0]<br/>[1, 0]<br/>[1, 0]]>, fillcolor="#e58139ff"] ;
350 -> 352 ;
353 [label=<gini = 0.0<br/>samples = 1<br/>value = [[1, 0]<br/>[1, 0]<br/>[1, 0]<br/>[1, 0]<br/>[1, 0]<br/>[1, 0]<br/>[0, 1]]>, fillcolor="#e58139ff"] ;
343 -> 353 ;
354 [label=<X<SUB>15</SUB> &le; 0.5<br/>gini = 0.222<br/>samples = 11<br/>value = [[9, 2]<br/>[8, 3]<br/>[11, 0]<br/>[8, 3]<br/>[10, 1]<br/>[11, 0]<br/>[9, 2]]>, fillcolor="#e5813915"] ;
342 -> 354 ;
355 [label=<X<SUB>7</SUB> &le; 0.5<br/>gini = 0.219<br/>samples = 9<br/>value = [[7, 2]<br/>[8, 1]<br/>[9, 0]<br/>[6, 3]<br/>[8, 1]<br/>[9, 0]<br/>[7, 2]]>, fillcolor="#e5813919"] ;
354 -> 355 ;
356 [label=<gini = 0.214<br/>samples = 8<br/>value = [[6, 2]<br/>[7, 1]<br/>[8, 0]<br/>[5, 3]<br/>[7, 1]<br/>[8, 0]<br/>[7, 1]]>, fillcolor="#e581391d"] ;
355 -> 356 ;
357 [label=<gini = 0.0<br/>samples = 1<br/>value = [[1, 0]<br/>[1, 0]<br/>[1, 0]<br/>[1, 0]<br/>[1, 0]<br/>[1, 0]<br/>[0, 1]]>, fillcolor="#e58139ff"] ;
355 -> 357 ;
358 [label=<gini = 0.0<br/>samples = 2<br/>value = [[2, 0]<br/>[0, 2]<br/>[2, 0]<br/>[2, 0]<br/>[2, 0]<br/>[2, 0]<br/>[2, 0]]>, fillcolor="#e58139ff"] ;
354 -> 358 ;
359 [label=<X<SUB>4</SUB> &le; 0.5<br/>gini = 0.205<br/>samples = 9<br/>value = [[9, 0]<br/>[9, 0]<br/>[7, 2]<br/>[6, 3]<br/>[8, 1]<br/>[9, 0]<br/>[6, 3]]>, fillcolor="#e5813927"] ;
341 -> 359 ;
360 [label=<X<SUB>10</SUB> &le; 0.5<br/>gini = 0.196<br/>samples = 8<br/>value = [[8, 0]<br/>[8, 0]<br/>[7, 1]<br/>[5, 3]<br/>[7, 1]<br/>[8, 0]<br/>[5, 3]]>, fillcolor="#e5813930"] ;
359 -> 360 ;
361 [label=<X<SUB>13</SUB> &le; 0.5<br/>gini = 0.198<br/>samples = 7<br/>value = [[7, 0]<br/>[7, 0]<br/>[6, 1]<br/>[4, 3]<br/>[6, 1]<br/>[7, 0]<br/>[5, 2]]>, fillcolor="#e581392e"] ;
360 -> 361 ;
362 [label=<X<SUB>6</SUB> &le; 0.5<br/>gini = 0.179<br/>samples = 4<br/>value = [[4, 0]<br/>[4, 0]<br/>[3, 1]<br/>[2, 2]<br/>[4, 0]<br/>[4, 0]<br/>[3, 1]]>, fillcolor="#e5813943"] ;
361 -> 362 ;
363 [label=<gini = 0.19<br/>samples = 3<br/>value = [[3, 0]<br/>[3, 0]<br/>[2, 1]<br/>[2, 1]<br/>[3, 0]<br/>[3, 0]<br/>[2, 1]]>, fillcolor="#e5813936"] ;
362 -> 363 ;
364 [label=<gini = 0.0<br/>samples = 1<br/>value = [[1, 0]<br/>[1, 0]<br/>[1, 0]<br/>[0, 1]<br/>[1, 0]<br/>[1, 0]<br/>[1, 0]]>, fillcolor="#e58139ff"] ;
362 -> 364 ;
365 [label=<X<SUB>6</SUB> &le; 0.5<br/>gini = 0.19<br/>samples = 3<br/>value = [[3, 0]<br/>[3, 0]<br/>[3, 0]<br/>[2, 1]<br/>[2, 1]<br/>[3, 0]<br/>[2, 1]]>, fillcolor="#e5813936"] ;
361 -> 365 ;
366 [label=<gini = 0.143<br/>samples = 2<br/>value = [[2, 0]<br/>[2, 0]<br/>[2, 0]<br/>[1, 1]<br/>[1, 1]<br/>[2, 0]<br/>[2, 0]]>, fillcolor="#e5813969"] ;
365 -> 366 ;
367 [label=<gini = 0.0<br/>samples = 1<br/>value = [[1, 0]<br/>[1, 0]<br/>[1, 0]<br/>[1, 0]<br/>[1, 0]<br/>[1, 0]<br/>[0, 1]]>, fillcolor="#e58139ff"] ;
365 -> 367 ;
368 [label=<gini = 0.0<br/>samples = 1<br/>value = [[1, 0]<br/>[1, 0]<br/>[1, 0]<br/>[1, 0]<br/>[1, 0]<br/>[1, 0]<br/>[0, 1]]>, fillcolor="#e58139ff"] ;
360 -> 368 ;
369 [label=<gini = 0.0<br/>samples = 1<br/>value = [[1, 0]<br/>[1, 0]<br/>[0, 1]<br/>[1, 0]<br/>[1, 0]<br/>[1, 0]<br/>[1, 0]]>, fillcolor="#e58139ff"] ;
359 -> 369 ;
370 [label=<gini = 0.0<br/>samples = 1<br/>value = [[1, 0]<br/>[0, 1]<br/>[1, 0]<br/>[1, 0]<br/>[1, 0]<br/>[1, 0]<br/>[1, 0]]>, fillcolor="#e58139ff"] ;
340 -> 370 ;
371 [label=<X<SUB>23</SUB> &le; 0.5<br/>gini = 0.128<br/>samples = 7<br/>value = [[7, 0]<br/>[7, 0]<br/>[7, 0]<br/>[2, 5]<br/>[6, 1]<br/>[7, 0]<br/>[6, 1]]>, fillcolor="#e5813978"] ;
339 -> 371 ;
372 [label=<X<SUB>13</SUB> &le; 0.5<br/>gini = 0.143<br/>samples = 2<br/>value = [[2, 0]<br/>[2, 0]<br/>[2, 0]<br/>[1, 1]<br/>[1, 1]<br/>[2, 0]<br/>[2, 0]]>, fillcolor="#e5813969"] ;
371 -> 372 ;
373 [label=<gini = 0.0<br/>samples = 1<br/>value = [[1, 0]<br/>[1, 0]<br/>[1, 0]<br/>[1, 0]<br/>[0, 1]<br/>[1, 0]<br/>[1, 0]]>, fillcolor="#e58139ff"] ;
372 -> 373 ;
374 [label=<gini = 0.0<br/>samples = 1<br/>value = [[1, 0]<br/>[1, 0]<br/>[1, 0]<br/>[0, 1]<br/>[1, 0]<br/>[1, 0]<br/>[1, 0]]>, fillcolor="#e58139ff"] ;
372 -> 374 ;
375 [label=<X<SUB>15</SUB> &le; 0.5<br/>gini = 0.091<br/>samples = 5<br/>value = [[5, 0]<br/>[5, 0]<br/>[5, 0]<br/>[1, 4]<br/>[5, 0]<br/>[5, 0]<br/>[4, 1]]>, fillcolor="#e581399f"] ;
371 -> 375 ;
376 [label=<gini = 0.0<br/>samples = 1<br/>value = [[1, 0]<br/>[1, 0]<br/>[1, 0]<br/>[0, 1]<br/>[1, 0]<br/>[1, 0]<br/>[1, 0]]>, fillcolor="#e58139ff"] ;
375 -> 376 ;
377 [label=<gini = 0.107<br/>samples = 4<br/>value = [[4, 0]<br/>[4, 0]<br/>[4, 0]<br/>[1, 3]<br/>[4, 0]<br/>[4, 0]<br/>[3, 1]]>, fillcolor="#e581398e"] ;
375 -> 377 ;
378 [label=<X<SUB>0</SUB> &le; 0.5<br/>gini = 0.214<br/>samples = 301<br/>value = [[291, 10]<br/>[258, 43]<br/>[272, 29]<br/>[171, 130]<br/>[280, 21]<br/>[279, 22]<br/>[255, 46]]>, fillcolor="#e581391e"] ;
14 -> 378 ;
379 [label=<X<SUB>7</SUB> &le; 0.5<br/>gini = 0.211<br/>samples = 271<br/>value = [[263, 8]<br/>[234, 37]<br/>[244, 27]<br/>[150, 121]<br/>[255, 16]<br/>[249, 22]<br/>[231, 40]]>, fillcolor="#e5813920"] ;
378 -> 379 ;
380 [label=<X<SUB>15</SUB> &le; 0.5<br/>gini = 0.214<br/>samples = 229<br/>value = [[225, 4]<br/>[196, 33]<br/>[204, 25]<br/>[131, 98]<br/>[215, 14]<br/>[210, 19]<br/>[193, 36]]>, fillcolor="#e581391e"] ;
379 -> 380 ;
381 [label=<X<SUB>4</SUB> &le; 0.5<br/>gini = 0.209<br/>samples = 131<br/>value = [[127, 4]<br/>[112, 19]<br/>[113, 18]<br/>[72, 59]<br/>[123, 8]<br/>[126, 5]<br/>[113, 18]]>, fillcolor="#e5813923"] ;
380 -> 381 ;
382 [label=<X<SUB>31</SUB> &le; 0.5<br/>gini = 0.208<br/>samples = 129<br/>value = [[125, 4]<br/>[110, 19]<br/>[111, 18]<br/>[70, 59]<br/>[121, 8]<br/>[124, 5]<br/>[113, 16]]>, fillcolor="#e5813924"] ;
381 -> 382 ;
383 [label=<X<SUB>10</SUB> &le; 0.5<br/>gini = 0.221<br/>samples = 72<br/>value = [[69, 3]<br/>[61, 11]<br/>[63, 9]<br/>[44, 28]<br/>[66, 6]<br/>[68, 4]<br/>[61, 11]]>, fillcolor="#e5813916"] ;
382 -> 383 ;
384 [label=<X<SUB>24</SUB> &le; 0.5<br/>gini = 0.22<br/>samples = 63<br/>value = [[62, 1]<br/>[53, 10]<br/>[54, 9]<br/>[39, 24]<br/>[57, 6]<br/>[61, 2]<br/>[52, 11]]>, fillcolor="#e5813918"] ;
383 -> 384 ;
385 [label=<X<SUB>11</SUB> &le; 0.5<br/>gini = 0.219<br/>samples = 62<br/>value = [[61, 1]<br/>[52, 10]<br/>[53, 9]<br/>[38, 24]<br/>[56, 6]<br/>[60, 2]<br/>[52, 10]]>, fillcolor="#e5813918"] ;
384 -> 385 ;
386 [label=<X<SUB>27</SUB> &le; 0.5<br/>gini = 0.219<br/>samples = 60<br/>value = [[59, 1]<br/>[50, 10]<br/>[51, 9]<br/>[37, 23]<br/>[55, 5]<br/>[58, 2]<br/>[50, 10]]>, fillcolor="#e5813918"] ;
385 -> 386 ;
387 [label=<X<SUB>23</SUB> &le; 0.5<br/>gini = 0.22<br/>samples = 59<br/>value = [[58, 1]<br/>[49, 10]<br/>[50, 9]<br/>[37, 22]<br/>[54, 5]<br/>[57, 2]<br/>[49, 10]]>, fillcolor="#e5813917"] ;
386 -> 387 ;
388 [label=<X<SUB>26</SUB> &le; 0.5<br/>gini = 0.16<br/>samples = 5<br/>value = [[5, 0]<br/>[4, 1]<br/>[5, 0]<br/>[2, 3]<br/>[5, 0]<br/>[5, 0]<br/>[4, 1]]>, fillcolor="#e5813956"] ;
387 -> 388 ;
389 [label=<X<SUB>6</SUB> &le; 0.5<br/>gini = 0.143<br/>samples = 2<br/>value = [[2, 0]<br/>[2, 0]<br/>[2, 0]<br/>[1, 1]<br/>[2, 0]<br/>[2, 0]<br/>[1, 1]]>, fillcolor="#e5813969"] ;
388 -> 389 ;
390 [label=<gini = 0.0<br/>samples = 1<br/>value = [[1, 0]<br/>[1, 0]<br/>[1, 0]<br/>[1, 0]<br/>[1, 0]<br/>[1, 0]<br/>[0, 1]]>, fillcolor="#e58139ff"] ;
389 -> 390 ;
391 [label=<gini = 0.0<br/>samples = 1<br/>value = [[1, 0]<br/>[1, 0]<br/>[1, 0]<br/>[0, 1]<br/>[1, 0]<br/>[1, 0]<br/>[1, 0]]>, fillcolor="#e58139ff"] ;
389 -> 391 ;
392 [label=<gini = 0.127<br/>samples = 3<br/>value = [[3, 0]<br/>[2, 1]<br/>[3, 0]<br/>[1, 2]<br/>[3, 0]<br/>[3, 0]<br/>[3, 0]]>, fillcolor="#e5813979"] ;
388 -> 392 ;
393 [label=<X<SUB>6</SUB> &le; 0.5<br/>gini = 0.224<br/>samples = 54<br/>value = [[53, 1]<br/>[45, 9]<br/>[45, 9]<br/>[35, 19]<br/>[49, 5]<br/>[52, 2]<br/>[45, 9]]>, fillcolor="#e5813913"] ;
387 -> 393 ;
394 [label=<X<SUB>3</SUB> &le; 0.5<br/>gini = 0.22<br/>samples = 48<br/>value = [[47, 1]<br/>[40, 8]<br/>[41, 7]<br/>[30, 18]<br/>[43, 5]<br/>[47, 1]<br/>[40, 8]]>, fillcolor="#e5813917"] ;
393 -> 394 ;
395 [label=<X<SUB>25</SUB> &le; 0.5<br/>gini = 0.218<br/>samples = 40<br/>value = [[39, 1]<br/>[33, 7]<br/>[35, 5]<br/>[25, 15]<br/>[36, 4]<br/>[40, 0]<br/>[32, 8]]>, fillcolor="#e581391a"] ;
394 -> 395 ;
396 [label=<gini = 0.219<br/>samples = 28<br/>value = [[27, 1]<br/>[23, 5]<br/>[24, 4]<br/>[18, 10]<br/>[26, 2]<br/>[28, 0]<br/>[22, 6]]>, fillcolor="#e5813918"] ;
395 -> 396 ;
397 [label=<gini = 0.21<br/>samples = 12<br/>value = [[12, 0]<br/>[10, 2]<br/>[11, 1]<br/>[7, 5]<br/>[10, 2]<br/>[12, 0]<br/>[10, 2]]>, fillcolor="#e5813921"] ;
395 -> 397 ;
398 [label=<X<SUB>26</SUB> &le; 0.5<br/>gini = 0.214<br/>samples = 8<br/>value = [[8, 0]<br/>[7, 1]<br/>[6, 2]<br/>[5, 3]<br/>[7, 1]<br/>[7, 1]<br/>[8, 0]]>, fillcolor="#e581391d"] ;
394 -> 398 ;
399 [label=<gini = 0.19<br/>samples = 3<br/>value = [[3, 0]<br/>[2, 1]<br/>[3, 0]<br/>[3, 0]<br/>[2, 1]<br/>[2, 1]<br/>[3, 0]]>, fillcolor="#e5813936"] ;
398 -> 399 ;
400 [label=<gini = 0.137<br/>samples = 5<br/>value = [[5, 0]<br/>[5, 0]<br/>[3, 2]<br/>[2, 3]<br/>[5, 0]<br/>[5, 0]<br/>[5, 0]]>, fillcolor="#e581396f"] ;
398 -> 400 ;
401 [label=<X<SUB>26</SUB> &le; 0.5<br/>gini = 0.222<br/>samples = 6<br/>value = [[6, 0]<br/>[5, 1]<br/>[4, 2]<br/>[5, 1]<br/>[6, 0]<br/>[5, 1]<br/>[5, 1]]>, fillcolor="#e5813915"] ;
393 -> 401 ;
402 [label=<gini = 0.0<br/>samples = 1<br/>value = [[1, 0]<br/>[1, 0]<br/>[0, 1]<br/>[1, 0]<br/>[1, 0]<br/>[1, 0]<br/>[1, 0]]>, fillcolor="#e58139ff"] ;
401 -> 402 ;
403 [label=<X<SUB>3</SUB> &le; 0.5<br/>gini = 0.229<br/>samples = 5<br/>value = [[5, 0]<br/>[4, 1]<br/>[4, 1]<br/>[4, 1]<br/>[5, 0]<br/>[4, 1]<br/>[4, 1]]>, fillcolor="#e581390e"] ;
401 -> 403 ;
404 [label=<gini = 0.143<br/>samples = 2<br/>value = [[2, 0]<br/>[1, 1]<br/>[2, 0]<br/>[2, 0]<br/>[2, 0]<br/>[1, 1]<br/>[2, 0]]>, fillcolor="#e5813969"] ;
403 -> 404 ;
405 [label=<gini = 0.19<br/>samples = 3<br/>value = [[3, 0]<br/>[3, 0]<br/>[2, 1]<br/>[2, 1]<br/>[3, 0]<br/>[3, 0]<br/>[2, 1]]>, fillcolor="#e5813936"] ;
403 -> 405 ;
406 [label=<gini = 0.0<br/>samples = 1<br/>value = [[1, 0]<br/>[1, 0]<br/>[1, 0]<br/>[0, 1]<br/>[1, 0]<br/>[1, 0]<br/>[1, 0]]>, fillcolor="#e58139ff"] ;
386 -> 406 ;
407 [label=<gini = 0.143<br/>samples = 2<br/>value = [[2, 0]<br/>[2, 0]<br/>[2, 0]<br/>[1, 1]<br/>[1, 1]<br/>[2, 0]<br/>[2, 0]]>, fillcolor="#e5813969"] ;
385 -> 407 ;
408 [label=<gini = 0.0<br/>samples = 1<br/>value = [[1, 0]<br/>[1, 0]<br/>[1, 0]<br/>[1, 0]<br/>[1, 0]<br/>[1, 0]<br/>[0, 1]]>, fillcolor="#e58139ff"] ;
384 -> 408 ;
409 [label=<X<SUB>24</SUB> &le; 0.5<br/>gini = 0.198<br/>samples = 9<br/>value = [[7, 2]<br/>[8, 1]<br/>[9, 0]<br/>[5, 4]<br/>[9, 0]<br/>[7, 2]<br/>[9, 0]]>, fillcolor="#e581392f"] ;
383 -> 409 ;
410 [label=<X<SUB>6</SUB> &le; 0.5<br/>gini = 0.179<br/>samples = 8<br/>value = [[6, 2]<br/>[8, 0]<br/>[8, 0]<br/>[4, 4]<br/>[8, 0]<br/>[6, 2]<br/>[8, 0]]>, fillcolor="#e5813943"] ;
409 -> 410 ;
411 [label=<X<SUB>25</SUB> &le; 0.5<br/>gini = 0.163<br/>samples = 7<br/>value = [[5, 2]<br/>[7, 0]<br/>[7, 0]<br/>[3, 4]<br/>[7, 0]<br/>[6, 1]<br/>[7, 0]]>, fillcolor="#e5813953"] ;
410 -> 411 ;
412 [label=<X<SUB>3</SUB> &le; 0.5<br/>gini = 0.16<br/>samples = 5<br/>value = [[4, 1]<br/>[5, 0]<br/>[5, 0]<br/>[2, 3]<br/>[5, 0]<br/>[4, 1]<br/>[5, 0]]>, fillcolor="#e5813956"] ;
411 -> 412 ;
413 [label=<gini = 0.179<br/>samples = 4<br/>value = [[3, 1]<br/>[4, 0]<br/>[4, 0]<br/>[2, 2]<br/>[4, 0]<br/>[3, 1]<br/>[4, 0]]>, fillcolor="#e5813943"] ;
412 -> 413 ;
414 [label=<gini = 0.0<br/>samples = 1<br/>value = [[1, 0]<br/>[1, 0]<br/>[1, 0]<br/>[0, 1]<br/>[1, 0]<br/>[1, 0]<br/>[1, 0]]>, fillcolor="#e58139ff"] ;
412 -> 414 ;
415 [label=<X<SUB>3</SUB> &le; 0.5<br/>gini = 0.143<br/>samples = 2<br/>value = [[1, 1]<br/>[2, 0]<br/>[2, 0]<br/>[1, 1]<br/>[2, 0]<br/>[2, 0]<br/>[2, 0]]>, fillcolor="#e5813969"] ;
411 -> 415 ;
416 [label=<gini = 0.0<br/>samples = 1<br/>value = [[1, 0]<br/>[1, 0]<br/>[1, 0]<br/>[0, 1]<br/>[1, 0]<br/>[1, 0]<br/>[1, 0]]>, fillcolor="#e58139ff"] ;
415 -> 416 ;
417 [label=<gini = 0.0<br/>samples = 1<br/>value = [[0, 1]<br/>[1, 0]<br/>[1, 0]<br/>[1, 0]<br/>[1, 0]<br/>[1, 0]<br/>[1, 0]]>, fillcolor="#e58139ff"] ;
415 -> 417 ;
418 [label=<gini = 0.0<br/>samples = 1<br/>value = [[1, 0]<br/>[1, 0]<br/>[1, 0]<br/>[1, 0]<br/>[1, 0]<br/>[0, 1]<br/>[1, 0]]>, fillcolor="#e58139ff"] ;
410 -> 418 ;
419 [label=<gini = 0.0<br/>samples = 1<br/>value = [[1, 0]<br/>[0, 1]<br/>[1, 0]<br/>[1, 0]<br/>[1, 0]<br/>[1, 0]<br/>[1, 0]]>, fillcolor="#e58139ff"] ;
409 -> 419 ;
420 [label=<X<SUB>24</SUB> &le; 0.5<br/>gini = 0.186<br/>samples = 57<br/>value = [[56, 1]<br/>[49, 8]<br/>[48, 9]<br/>[26, 31]<br/>[55, 2]<br/>[56, 1]<br/>[52, 5]]>, fillcolor="#e581393b"] ;
382 -> 420 ;
421 [label=<X<SUB>3</SUB> &le; 0.5<br/>gini = 0.184<br/>samples = 56<br/>value = [[55, 1]<br/>[48, 8]<br/>[48, 8]<br/>[25, 31]<br/>[54, 2]<br/>[55, 1]<br/>[51, 5]]>, fillcolor="#e581393e"] ;
420 -> 421 ;
422 [label=<X<SUB>6</SUB> &le; 0.5<br/>gini = 0.191<br/>samples = 48<br/>value = [[47, 1]<br/>[41, 7]<br/>[40, 8]<br/>[23, 25]<br/>[47, 1]<br/>[47, 1]<br/>[43, 5]]>, fillcolor="#e5813936"] ;
421 -> 422 ;
423 [label=<X<SUB>25</SUB> &le; 0.5<br/>gini = 0.186<br/>samples = 46<br/>value = [[45, 1]<br/>[40, 6]<br/>[39, 7]<br/>[21, 25]<br/>[45, 1]<br/>[45, 1]<br/>[41, 5]]>, fillcolor="#e581393b"] ;
422 -> 423 ;
424 [label=<X<SUB>10</SUB> &le; 0.5<br/>gini = 0.19<br/>samples = 34<br/>value = [[33, 1]<br/>[31, 3]<br/>[29, 5]<br/>[16, 18]<br/>[33, 1]<br/>[33, 1]<br/>[29, 5]]>, fillcolor="#e5813937"] ;
423 -> 424 ;
425 [label=<X<SUB>23</SUB> &le; 0.5<br/>gini = 0.186<br/>samples = 26<br/>value = [[25, 1]<br/>[24, 2]<br/>[23, 3]<br/>[12, 14]<br/>[26, 0]<br/>[25, 1]<br/>[21, 5]]>, fillcolor="#e581393b"] ;
424 -> 425 ;
426 [label=<gini = 0.143<br/>samples = 2<br/>value = [[2, 0]<br/>[2, 0]<br/>[2, 0]<br/>[1, 1]<br/>[2, 0]<br/>[2, 0]<br/>[1, 1]]>, fillcolor="#e5813969"] ;
425 -> 426 ;
427 [label=<gini = 0.187<br/>samples = 24<br/>value = [[23, 1]<br/>[22, 2]<br/>[21, 3]<br/>[11, 13]<br/>[24, 0]<br/>[23, 1]<br/>[20, 4]]>, fillcolor="#e581393b"] ;
425 -> 427 ;
428 [label=<gini = 0.188<br/>samples = 8<br/>value = [[8, 0]<br/>[7, 1]<br/>[6, 2]<br/>[4, 4]<br/>[7, 1]<br/>[8, 0]<br/>[8, 0]]>, fillcolor="#e5813939"] ;
424 -> 428 ;
429 [label=<X<SUB>10</SUB> &le; 0.5<br/>gini = 0.163<br/>samples = 12<br/>value = [[12, 0]<br/>[9, 3]<br/>[10, 2]<br/>[5, 7]<br/>[12, 0]<br/>[12, 0]<br/>[12, 0]]>, fillcolor="#e5813954"] ;
423 -> 429 ;
430 [label=<gini = 0.179<br/>samples = 8<br/>value = [[8, 0]<br/>[6, 2]<br/>[6, 2]<br/>[4, 4]<br/>[8, 0]<br/>[8, 0]<br/>[8, 0]]>, fillcolor="#e5813943"] ;
429 -> 430 ;
431 [label=<gini = 0.107<br/>samples = 4<br/>value = [[4, 0]<br/>[3, 1]<br/>[4, 0]<br/>[1, 3]<br/>[4, 0]<br/>[4, 0]<br/>[4, 0]]>, fillcolor="#e581398e"] ;
429 -> 431 ;
432 [label=<gini = 0.143<br/>samples = 2<br/>value = [[2, 0]<br/>[1, 1]<br/>[1, 1]<br/>[2, 0]<br/>[2, 0]<br/>[2, 0]<br/>[2, 0]]>, fillcolor="#e5813969"] ;
422 -> 432 ;
433 [label=<X<SUB>6</SUB> &le; 0.5<br/>gini = 0.116<br/>samples = 8<br/>value = [[8, 0]<br/>[7, 1]<br/>[8, 0]<br/>[2, 6]<br/>[7, 1]<br/>[8, 0]<br/>[8, 0]]>, fillcolor="#e5813985"] ;
421 -> 433 ;
434 [label=<X<SUB>10</SUB> &le; 0.5<br/>gini = 0.143<br/>samples = 6<br/>value = [[6, 0]<br/>[5, 1]<br/>[6, 0]<br/>[2, 4]<br/>[5, 1]<br/>[6, 0]<br/>[6, 0]]>, fillcolor="#e5813969"] ;
433 -> 434 ;
435 [label=<X<SUB>22</SUB> &le; 0.5<br/>gini = 0.179<br/>samples = 4<br/>value = [[4, 0]<br/>[3, 1]<br/>[4, 0]<br/>[2, 2]<br/>[3, 1]<br/>[4, 0]<br/>[4, 0]]>, fillcolor="#e5813943"] ;
434 -> 435 ;
436 [label=<gini = 0.19<br/>samples = 3<br/>value = [[3, 0]<br/>[2, 1]<br/>[3, 0]<br/>[2, 1]<br/>[2, 1]<br/>[3, 0]<br/>[3, 0]]>, fillcolor="#e5813936"] ;
435 -> 436 ;
437 [label=<gini = 0.0<br/>samples = 1<br/>value = [[1, 0]<br/>[1, 0]<br/>[1, 0]<br/>[0, 1]<br/>[1, 0]<br/>[1, 0]<br/>[1, 0]]>, fillcolor="#e58139ff"] ;
435 -> 437 ;
438 [label=<gini = 0.0<br/>samples = 2<br/>value = [[2, 0]<br/>[2, 0]<br/>[2, 0]<br/>[0, 2]<br/>[2, 0]<br/>[2, 0]<br/>[2, 0]]>, fillcolor="#e58139ff"] ;
434 -> 438 ;
439 [label=<gini = 0.0<br/>samples = 2<br/>value = [[2, 0]<br/>[2, 0]<br/>[2, 0]<br/>[0, 2]<br/>[2, 0]<br/>[2, 0]<br/>[2, 0]]>, fillcolor="#e58139ff"] ;
433 -> 439 ;
440 [label=<gini = 0.0<br/>samples = 1<br/>value = [[1, 0]<br/>[1, 0]<br/>[0, 1]<br/>[1, 0]<br/>[1, 0]<br/>[1, 0]<br/>[1, 0]]>, fillcolor="#e58139ff"] ;
420 -> 440 ;
441 [label=<gini = 0.0<br/>samples = 2<br/>value = [[2, 0]<br/>[2, 0]<br/>[2, 0]<br/>[2, 0]<br/>[2, 0]<br/>[2, 0]<br/>[0, 2]]>, fillcolor="#e58139ff"] ;
381 -> 441 ;
442 [label=<X<SUB>3</SUB> &le; 0.5<br/>gini = 0.217<br/>samples = 98<br/>value = [[98, 0]<br/>[84, 14]<br/>[91, 7]<br/>[59, 39]<br/>[92, 6]<br/>[84, 14]<br/>[80, 18]]>, fillcolor="#e581391b"] ;
380 -> 442 ;
443 [label=<X<SUB>25</SUB> &le; 0.5<br/>gini = 0.213<br/>samples = 83<br/>value = [[83, 0]<br/>[73, 10]<br/>[77, 6]<br/>[48, 35]<br/>[77, 6]<br/>[73, 10]<br/>[67, 16]]>, fillcolor="#e581391f"] ;
442 -> 443 ;
444 [label=<X<SUB>11</SUB> &le; 0.5<br/>gini = 0.215<br/>samples = 48<br/>value = [[48, 0]<br/>[43, 5]<br/>[45, 3]<br/>[30, 18]<br/>[44, 4]<br/>[43, 5]<br/>[35, 13]]>, fillcolor="#e581391c"] ;
443 -> 444 ;
445 [label=<X<SUB>26</SUB> &le; 0.5<br/>gini = 0.213<br/>samples = 46<br/>value = [[46, 0]<br/>[41, 5]<br/>[43, 3]<br/>[28, 18]<br/>[43, 3]<br/>[41, 5]<br/>[34, 12]]>, fillcolor="#e581391e"] ;
444 -> 445 ;
446 [label=<X<SUB>29</SUB> &le; 0.5<br/>gini = 0.143<br/>samples = 2<br/>value = [[2, 0]<br/>[1, 1]<br/>[2, 0]<br/>[2, 0]<br/>[2, 0]<br/>[2, 0]<br/>[1, 1]]>, fillcolor="#e5813969"] ;
445 -> 446 ;
447 [label=<gini = 0.0<br/>samples = 1<br/>value = [[1, 0]<br/>[0, 1]<br/>[1, 0]<br/>[1, 0]<br/>[1, 0]<br/>[1, 0]<br/>[1, 0]]>, fillcolor="#e58139ff"] ;
446 -> 447 ;
448 [label=<gini = 0.0<br/>samples = 1<br/>value = [[1, 0]<br/>[1, 0]<br/>[1, 0]<br/>[1, 0]<br/>[1, 0]<br/>[1, 0]<br/>[0, 1]]>, fillcolor="#e58139ff"] ;
446 -> 448 ;
449 [label=<X<SUB>6</SUB> &le; 0.5<br/>gini = 0.211<br/>samples = 44<br/>value = [[44, 0]<br/>[40, 4]<br/>[41, 3]<br/>[26, 18]<br/>[41, 3]<br/>[39, 5]<br/>[33, 11]]>, fillcolor="#e5813920"] ;
445 -> 449 ;
450 [label=<X<SUB>10</SUB> &le; 0.5<br/>gini = 0.211<br/>samples = 43<br/>value = [[43, 0]<br/>[39, 4]<br/>[40, 3]<br/>[25, 18]<br/>[40, 3]<br/>[38, 5]<br/>[33, 10]]>, fillcolor="#e5813921"] ;
449 -> 450 ;
451 [label=<X<SUB>31</SUB> &le; 0.5<br/>gini = 0.205<br/>samples = 38<br/>value = [[38, 0]<br/>[35, 3]<br/>[36, 2]<br/>[21, 17]<br/>[35, 3]<br/>[34, 4]<br/>[29, 9]]>, fillcolor="#e5813927"] ;
450 -> 451 ;
452 [label=<gini = 0.184<br/>samples = 20<br/>value = [[20, 0]<br/>[19, 1]<br/>[20, 0]<br/>[10, 10]<br/>[19, 1]<br/>[18, 2]<br/>[14, 6]]>, fillcolor="#e581393d"] ;
451 -> 452 ;
453 [label=<X<SUB>23</SUB> &le; 0.5<br/>gini = 0.22<br/>samples = 18<br/>value = [[18, 0]<br/>[16, 2]<br/>[16, 2]<br/>[11, 7]<br/>[16, 2]<br/>[16, 2]<br/>[15, 3]]>, fillcolor="#e5813917"] ;
451 -> 453 ;
454 [label=<gini = 0.143<br/>samples = 2<br/>value = [[2, 0]<br/>[2, 0]<br/>[2, 0]<br/>[1, 1]<br/>[2, 0]<br/>[2, 0]<br/>[1, 1]]>, fillcolor="#e5813969"] ;
453 -> 454 ;
455 [label=<gini = 0.223<br/>samples = 16<br/>value = [[16, 0]<br/>[14, 2]<br/>[14, 2]<br/>[10, 6]<br/>[14, 2]<br/>[14, 2]<br/>[14, 2]]>, fillcolor="#e5813914"] ;
453 -> 455 ;
456 [label=<X<SUB>29</SUB> &le; 0.5<br/>gini = 0.229<br/>samples = 5<br/>value = [[5, 0]<br/>[4, 1]<br/>[4, 1]<br/>[4, 1]<br/>[5, 0]<br/>[4, 1]<br/>[4, 1]]>, fillcolor="#e581390e"] ;
450 -> 456 ;
457 [label=<gini = 0.0<br/>samples = 1<br/>value = [[1, 0]<br/>[1, 0]<br/>[1, 0]<br/>[1, 0]<br/>[1, 0]<br/>[0, 1]<br/>[1, 0]]>, fillcolor="#e58139ff"] ;
456 -> 457 ;
458 [label=<gini = 0.214<br/>samples = 4<br/>value = [[4, 0]<br/>[3, 1]<br/>[3, 1]<br/>[3, 1]<br/>[4, 0]<br/>[4, 0]<br/>[3, 1]]>, fillcolor="#e581391d"] ;
456 -> 458 ;
459 [label=<gini = 0.0<br/>samples = 1<br/>value = [[1, 0]<br/>[1, 0]<br/>[1, 0]<br/>[1, 0]<br/>[1, 0]<br/>[1, 0]<br/>[0, 1]]>, fillcolor="#e58139ff"] ;
449 -> 459 ;
460 [label=<X<SUB>31</SUB> &le; 0.5<br/>gini = 0.143<br/>samples = 2<br/>value = [[2, 0]<br/>[2, 0]<br/>[2, 0]<br/>[2, 0]<br/>[1, 1]<br/>[2, 0]<br/>[1, 1]]>, fillcolor="#e5813969"] ;
444 -> 460 ;
461 [label=<gini = 0.0<br/>samples = 1<br/>value = [[1, 0]<br/>[1, 0]<br/>[1, 0]<br/>[1, 0]<br/>[0, 1]<br/>[1, 0]<br/>[1, 0]]>, fillcolor="#e58139ff"] ;
460 -> 461 ;
462 [label=<gini = 0.0<br/>samples = 1<br/>value = [[1, 0]<br/>[1, 0]<br/>[1, 0]<br/>[1, 0]<br/>[1, 0]<br/>[1, 0]<br/>[0, 1]]>, fillcolor="#e58139ff"] ;
460 -> 462 ;
463 [label=<X<SUB>31</SUB> &le; 0.5<br/>gini = 0.202<br/>samples = 35<br/>value = [[35, 0]<br/>[30, 5]<br/>[32, 3]<br/>[18, 17]<br/>[33, 2]<br/>[30, 5]<br/>[32, 3]]>, fillcolor="#e581392b"] ;
443 -> 463 ;
464 [label=<X<SUB>10</SUB> &le; 0.5<br/>gini = 0.223<br/>samples = 22<br/>value = [[22, 0]<br/>[19, 3]<br/>[20, 2]<br/>[14, 8]<br/>[20, 2]<br/>[18, 4]<br/>[19, 3]]>, fillcolor="#e5813914"] ;
463 -> 464 ;
465 [label=<X<SUB>6</SUB> &le; 0.5<br/>gini = 0.22<br/>samples = 21<br/>value = [[21, 0]<br/>[19, 2]<br/>[19, 2]<br/>[13, 8]<br/>[19, 2]<br/>[17, 4]<br/>[18, 3]]>, fillcolor="#e5813917"] ;
464 -> 465 ;
466 [label=<X<SUB>11</SUB> &le; 0.5<br/>gini = 0.224<br/>samples = 20<br/>value = [[20, 0]<br/>[18, 2]<br/>[18, 2]<br/>[13, 7]<br/>[18, 2]<br/>[16, 4]<br/>[17, 3]]>, fillcolor="#e5813913"] ;
465 -> 466 ;
467 [label=<X<SUB>23</SUB> &le; 0.5<br/>gini = 0.228<br/>samples = 19<br/>value = [[19, 0]<br/>[17, 2]<br/>[17, 2]<br/>[13, 6]<br/>[17, 2]<br/>[15, 4]<br/>[16, 3]]>, fillcolor="#e581390f"] ;
466 -> 467 ;
468 [label=<gini = 0.19<br/>samples = 3<br/>value = [[3, 0]<br/>[3, 0]<br/>[2, 1]<br/>[2, 1]<br/>[3, 0]<br/>[2, 1]<br/>[3, 0]]>, fillcolor="#e5813936"] ;
467 -> 468 ;
469 [label=<gini = 0.228<br/>samples = 16<br/>value = [[16, 0]<br/>[14, 2]<br/>[15, 1]<br/>[11, 5]<br/>[14, 2]<br/>[13, 3]<br/>[13, 3]]>, fillcolor="#e581390f"] ;
467 -> 469 ;
470 [label=<gini = 0.0<br/>samples = 1<br/>value = [[1, 0]<br/>[1, 0]<br/>[1, 0]<br/>[0, 1]<br/>[1, 0]<br/>[1, 0]<br/>[1, 0]]>, fillcolor="#e58139ff"] ;
466 -> 470 ;
471 [label=<gini = 0.0<br/>samples = 1<br/>value = [[1, 0]<br/>[1, 0]<br/>[1, 0]<br/>[0, 1]<br/>[1, 0]<br/>[1, 0]<br/>[1, 0]]>, fillcolor="#e58139ff"] ;
465 -> 471 ;
472 [label=<gini = 0.0<br/>samples = 1<br/>value = [[1, 0]<br/>[0, 1]<br/>[1, 0]<br/>[1, 0]<br/>[1, 0]<br/>[1, 0]<br/>[1, 0]]>, fillcolor="#e58139ff"] ;
464 -> 472 ;
473 [label=<X<SUB>23</SUB> &le; 0.5<br/>gini = 0.139<br/>samples = 13<br/>value = [[13, 0]<br/>[11, 2]<br/>[12, 1]<br/>[4, 9]<br/>[13, 0]<br/>[12, 1]<br/>[13, 0]]>, fillcolor="#e581396d"] ;
463 -> 473 ;
474 [label=<gini = 0.127<br/>samples = 3<br/>value = [[3, 0]<br/>[3, 0]<br/>[3, 0]<br/>[1, 2]<br/>[3, 0]<br/>[2, 1]<br/>[3, 0]]>, fillcolor="#e5813979"] ;
473 -> 474 ;
475 [label=<X<SUB>4</SUB> &le; 0.5<br/>gini = 0.131<br/>samples = 10<br/>value = [[10, 0]<br/>[8, 2]<br/>[9, 1]<br/>[3, 7]<br/>[10, 0]<br/>[10, 0]<br/>[10, 0]]>, fillcolor="#e5813975"] ;
473 -> 475 ;
476 [label=<gini = 0.141<br/>samples = 9<br/>value = [[9, 0]<br/>[7, 2]<br/>[8, 1]<br/>[3, 6]<br/>[9, 0]<br/>[9, 0]<br/>[9, 0]]>, fillcolor="#e581396a"] ;
475 -> 476 ;
477 [label=<gini = 0.0<br/>samples = 1<br/>value = [[1, 0]<br/>[1, 0]<br/>[1, 0]<br/>[0, 1]<br/>[1, 0]<br/>[1, 0]<br/>[1, 0]]>, fillcolor="#e58139ff"] ;
475 -> 477 ;
478 [label=<X<SUB>11</SUB> &le; 0.5<br/>gini = 0.218<br/>samples = 15<br/>value = [[15, 0]<br/>[11, 4]<br/>[14, 1]<br/>[11, 4]<br/>[15, 0]<br/>[11, 4]<br/>[13, 2]]>, fillcolor="#e5813919"] ;
442 -> 478 ;
479 [label=<X<SUB>10</SUB> &le; 0.5<br/>gini = 0.213<br/>samples = 14<br/>value = [[14, 0]<br/>[10, 4]<br/>[13, 1]<br/>[10, 4]<br/>[14, 0]<br/>[10, 4]<br/>[13, 1]]>, fillcolor="#e581391f"] ;
478 -> 479 ;
480 [label=<X<SUB>23</SUB> &le; 0.5<br/>gini = 0.203<br/>samples = 13<br/>value = [[13, 0]<br/>[9, 4]<br/>[12, 1]<br/>[9, 4]<br/>[13, 0]<br/>[9, 4]<br/>[13, 0]]>, fillcolor="#e5813929"] ;
479 -> 480 ;
481 [label=<X<SUB>29</SUB> &le; 0.5<br/>gini = 0.127<br/>samples = 3<br/>value = [[3, 0]<br/>[3, 0]<br/>[3, 0]<br/>[1, 2]<br/>[3, 0]<br/>[2, 1]<br/>[3, 0]]>, fillcolor="#e5813979"] ;
480 -> 481 ;
482 [label=<gini = 0.0<br/>samples = 2<br/>value = [[2, 0]<br/>[2, 0]<br/>[2, 0]<br/>[0, 2]<br/>[2, 0]<br/>[2, 0]<br/>[2, 0]]>, fillcolor="#e58139ff"] ;
481 -> 482 ;
483 [label=<gini = 0.0<br/>samples = 1<br/>value = [[1, 0]<br/>[1, 0]<br/>[1, 0]<br/>[1, 0]<br/>[1, 0]<br/>[0, 1]<br/>[1, 0]]>, fillcolor="#e58139ff"] ;
481 -> 483 ;
484 [label=<X<SUB>29</SUB> &le; 0.5<br/>gini = 0.2<br/>samples = 10<br/>value = [[10, 0]<br/>[6, 4]<br/>[9, 1]<br/>[8, 2]<br/>[10, 0]<br/>[7, 3]<br/>[10, 0]]>, fillcolor="#e581392c"] ;
480 -> 484 ;
485 [label=<X<SUB>6</SUB> &le; 0.5<br/>gini = 0.143<br/>samples = 6<br/>value = [[6, 0]<br/>[3, 3]<br/>[6, 0]<br/>[6, 0]<br/>[6, 0]<br/>[3, 3]<br/>[6, 0]]>, fillcolor="#e5813969"] ;
484 -> 485 ;
486 [label=<X<SUB>26</SUB> &le; 0.5<br/>gini = 0.137<br/>samples = 5<br/>value = [[5, 0]<br/>[2, 3]<br/>[5, 0]<br/>[5, 0]<br/>[5, 0]<br/>[3, 2]<br/>[5, 0]]>, fillcolor="#e581396f"] ;
485 -> 486 ;
487 [label=<gini = 0.0<br/>samples = 1<br/>value = [[1, 0]<br/>[1, 0]<br/>[1, 0]<br/>[1, 0]<br/>[1, 0]<br/>[0, 1]<br/>[1, 0]]>, fillcolor="#e58139ff"] ;
486 -> 487 ;
488 [label=<gini = 0.107<br/>samples = 4<br/>value = [[4, 0]<br/>[1, 3]<br/>[4, 0]<br/>[4, 0]<br/>[4, 0]<br/>[3, 1]<br/>[4, 0]]>, fillcolor="#e581398e"] ;
486 -> 488 ;
489 [label=<gini = 0.0<br/>samples = 1<br/>value = [[1, 0]<br/>[1, 0]<br/>[1, 0]<br/>[1, 0]<br/>[1, 0]<br/>[0, 1]<br/>[1, 0]]>, fillcolor="#e58139ff"] ;
485 -> 489 ;
490 [label=<X<SUB>25</SUB> &le; 0.5<br/>gini = 0.179<br/>samples = 4<br/>value = [[4, 0]<br/>[3, 1]<br/>[3, 1]<br/>[2, 2]<br/>[4, 0]<br/>[4, 0]<br/>[4, 0]]>, fillcolor="#e5813943"] ;
484 -> 490 ;
491 [label=<gini = 0.0<br/>samples = 2<br/>value = [[2, 0]<br/>[2, 0]<br/>[2, 0]<br/>[0, 2]<br/>[2, 0]<br/>[2, 0]<br/>[2, 0]]>, fillcolor="#e58139ff"] ;
490 -> 491 ;
492 [label=<gini = 0.143<br/>samples = 2<br/>value = [[2, 0]<br/>[1, 1]<br/>[1, 1]<br/>[2, 0]<br/>[2, 0]<br/>[2, 0]<br/>[2, 0]]>, fillcolor="#e5813969"] ;
490 -> 492 ;
493 [label=<gini = 0.0<br/>samples = 1<br/>value = [[1, 0]<br/>[1, 0]<br/>[1, 0]<br/>[1, 0]<br/>[1, 0]<br/>[1, 0]<br/>[0, 1]]>, fillcolor="#e58139ff"] ;
479 -> 493 ;
494 [label=<gini = 0.0<br/>samples = 1<br/>value = [[1, 0]<br/>[1, 0]<br/>[1, 0]<br/>[1, 0]<br/>[1, 0]<br/>[1, 0]<br/>[0, 1]]>, fillcolor="#e58139ff"] ;
478 -> 494 ;
495 [label=<X<SUB>3</SUB> &le; 0.5<br/>gini = 0.19<br/>samples = 42<br/>value = [[38, 4]<br/>[38, 4]<br/>[40, 2]<br/>[19, 23]<br/>[40, 2]<br/>[39, 3]<br/>[38, 4]]>, fillcolor="#e5813937"] ;
379 -> 495 ;
496 [label=<X<SUB>25</SUB> &le; 0.5<br/>gini = 0.177<br/>samples = 31<br/>value = [[27, 4]<br/>[27, 4]<br/>[29, 2]<br/>[13, 18]<br/>[30, 1]<br/>[29, 2]<br/>[31, 0]]>, fillcolor="#e5813944"] ;
495 -> 496 ;
497 [label=<X<SUB>29</SUB> &le; 0.5<br/>gini = 0.162<br/>samples = 22<br/>value = [[21, 1]<br/>[20, 2]<br/>[20, 2]<br/>[8, 14]<br/>[21, 1]<br/>[20, 2]<br/>[22, 0]]>, fillcolor="#e5813955"] ;
496 -> 497 ;
498 [label=<X<SUB>13</SUB> &le; 0.5<br/>gini = 0.127<br/>samples = 6<br/>value = [[6, 0]<br/>[6, 0]<br/>[4, 2]<br/>[2, 4]<br/>[6, 0]<br/>[6, 0]<br/>[6, 0]]>, fillcolor="#e5813979"] ;
497 -> 498 ;
499 [label=<X<SUB>4</SUB> &le; 0.5<br/>gini = 0.091<br/>samples = 5<br/>value = [[5, 0]<br/>[5, 0]<br/>[4, 1]<br/>[1, 4]<br/>[5, 0]<br/>[5, 0]<br/>[5, 0]]>, fillcolor="#e581399f"] ;
498 -> 499 ;
500 [label=<gini = 0.0<br/>samples = 2<br/>value = [[2, 0]<br/>[2, 0]<br/>[2, 0]<br/>[0, 2]<br/>[2, 0]<br/>[2, 0]<br/>[2, 0]]>, fillcolor="#e58139ff"] ;
499 -> 500 ;
501 [label=<X<SUB>26</SUB> &le; 0.5<br/>gini = 0.127<br/>samples = 3<br/>value = [[3, 0]<br/>[3, 0]<br/>[2, 1]<br/>[1, 2]<br/>[3, 0]<br/>[3, 0]<br/>[3, 0]]>, fillcolor="#e5813979"] ;
499 -> 501 ;
502 [label=<gini = 0.0<br/>samples = 1<br/>value = [[1, 0]<br/>[1, 0]<br/>[1, 0]<br/>[0, 1]<br/>[1, 0]<br/>[1, 0]<br/>[1, 0]]>, fillcolor="#e58139ff"] ;
501 -> 502 ;
503 [label=<gini = 0.143<br/>samples = 2<br/>value = [[2, 0]<br/>[2, 0]<br/>[1, 1]<br/>[1, 1]<br/>[2, 0]<br/>[2, 0]<br/>[2, 0]]>, fillcolor="#e5813969"] ;
501 -> 503 ;
504 [label=<gini = 0.0<br/>samples = 1<br/>value = [[1, 0]<br/>[1, 0]<br/>[0, 1]<br/>[1, 0]<br/>[1, 0]<br/>[1, 0]<br/>[1, 0]]>, fillcolor="#e58139ff"] ;
498 -> 504 ;
505 [label=<X<SUB>26</SUB> &le; 0.5<br/>gini = 0.163<br/>samples = 16<br/>value = [[15, 1]<br/>[14, 2]<br/>[16, 0]<br/>[6, 10]<br/>[15, 1]<br/>[14, 2]<br/>[16, 0]]>, fillcolor="#e5813953"] ;
497 -> 505 ;
506 [label=<gini = 0.0<br/>samples = 1<br/>value = [[1, 0]<br/>[1, 0]<br/>[1, 0]<br/>[1, 0]<br/>[0, 1]<br/>[1, 0]<br/>[1, 0]]>, fillcolor="#e58139ff"] ;
505 -> 506 ;
507 [label=<X<SUB>13</SUB> &le; 0.5<br/>gini = 0.147<br/>samples = 15<br/>value = [[14, 1]<br/>[13, 2]<br/>[15, 0]<br/>[5, 10]<br/>[15, 0]<br/>[13, 2]<br/>[15, 0]]>, fillcolor="#e5813964"] ;
505 -> 507 ;
508 [label=<X<SUB>4</SUB> &le; 0.5<br/>gini = 0.143<br/>samples = 6<br/>value = [[5, 1]<br/>[5, 1]<br/>[6, 0]<br/>[2, 4]<br/>[6, 0]<br/>[6, 0]<br/>[6, 0]]>, fillcolor="#e5813969"] ;
507 -> 508 ;
509 [label=<X<SUB>6</SUB> &le; 0.5<br/>gini = 0.107<br/>samples = 4<br/>value = [[3, 1]<br/>[4, 0]<br/>[4, 0]<br/>[1, 3]<br/>[4, 0]<br/>[4, 0]<br/>[4, 0]]>, fillcolor="#e581398e"] ;
508 -> 509 ;
510 [label=<gini = 0.127<br/>samples = 3<br/>value = [[2, 1]<br/>[3, 0]<br/>[3, 0]<br/>[1, 2]<br/>[3, 0]<br/>[3, 0]<br/>[3, 0]]>, fillcolor="#e5813979"] ;
509 -> 510 ;
511 [label=<gini = 0.0<br/>samples = 1<br/>value = [[1, 0]<br/>[1, 0]<br/>[1, 0]<br/>[0, 1]<br/>[1, 0]<br/>[1, 0]<br/>[1, 0]]>, fillcolor="#e58139ff"] ;
509 -> 511 ;
512 [label=<gini = 0.143<br/>samples = 2<br/>value = [[2, 0]<br/>[1, 1]<br/>[2, 0]<br/>[1, 1]<br/>[2, 0]<br/>[2, 0]<br/>[2, 0]]>, fillcolor="#e5813969"] ;
508 -> 512 ;
513 [label=<X<SUB>4</SUB> &le; 0.5<br/>gini = 0.141<br/>samples = 9<br/>value = [[9, 0]<br/>[8, 1]<br/>[9, 0]<br/>[3, 6]<br/>[9, 0]<br/>[7, 2]<br/>[9, 0]]>, fillcolor="#e581396a"] ;
507 -> 513 ;
514 [label=<X<SUB>10</SUB> &le; 0.5<br/>gini = 0.143<br/>samples = 2<br/>value = [[2, 0]<br/>[1, 1]<br/>[2, 0]<br/>[1, 1]<br/>[2, 0]<br/>[2, 0]<br/>[2, 0]]>, fillcolor="#e5813969"] ;
513 -> 514 ;
515 [label=<gini = 0.0<br/>samples = 1<br/>value = [[1, 0]<br/>[0, 1]<br/>[1, 0]<br/>[1, 0]<br/>[1, 0]<br/>[1, 0]<br/>[1, 0]]>, fillcolor="#e58139ff"] ;
514 -> 515 ;
516 [label=<gini = 0.0<br/>samples = 1<br/>value = [[1, 0]<br/>[1, 0]<br/>[1, 0]<br/>[0, 1]<br/>[1, 0]<br/>[1, 0]<br/>[1, 0]]>, fillcolor="#e58139ff"] ;
514 -> 516 ;
517 [label=<X<SUB>10</SUB> &le; 0.5<br/>gini = 0.117<br/>samples = 7<br/>value = [[7, 0]<br/>[7, 0]<br/>[7, 0]<br/>[2, 5]<br/>[7, 0]<br/>[5, 2]<br/>[7, 0]]>, fillcolor="#e5813984"] ;
513 -> 517 ;
518 [label=<X<SUB>23</SUB> &le; 0.5<br/>gini = 0.091<br/>samples = 5<br/>value = [[5, 0]<br/>[5, 0]<br/>[5, 0]<br/>[1, 4]<br/>[5, 0]<br/>[4, 1]<br/>[5, 0]]>, fillcolor="#e581399f"] ;
517 -> 518 ;
519 [label=<gini = 0.0<br/>samples = 1<br/>value = [[1, 0]<br/>[1, 0]<br/>[1, 0]<br/>[0, 1]<br/>[1, 0]<br/>[1, 0]<br/>[1, 0]]>, fillcolor="#e58139ff"] ;
518 -> 519 ;
520 [label=<gini = 0.107<br/>samples = 4<br/>value = [[4, 0]<br/>[4, 0]<br/>[4, 0]<br/>[1, 3]<br/>[4, 0]<br/>[3, 1]<br/>[4, 0]]>, fillcolor="#e581398e"] ;
518 -> 520 ;
521 [label=<gini = 0.143<br/>samples = 2<br/>value = [[2, 0]<br/>[2, 0]<br/>[2, 0]<br/>[1, 1]<br/>[2, 0]<br/>[1, 1]<br/>[2, 0]]>, fillcolor="#e5813969"] ;
517 -> 521 ;
522 [label=<X<SUB>13</SUB> &le; 0.5<br/>gini = 0.183<br/>samples = 9<br/>value = [[6, 3]<br/>[7, 2]<br/>[9, 0]<br/>[5, 4]<br/>[9, 0]<br/>[9, 0]<br/>[9, 0]]>, fillcolor="#e581393e"] ;
496 -> 522 ;
523 [label=<X<SUB>31</SUB> &le; 0.5<br/>gini = 0.107<br/>samples = 4<br/>value = [[4, 0]<br/>[3, 1]<br/>[4, 0]<br/>[1, 3]<br/>[4, 0]<br/>[4, 0]<br/>[4, 0]]>, fillcolor="#e581398e"] ;
522 -> 523 ;
524 [label=<X<SUB>10</SUB> &le; 0.5<br/>gini = 0.143<br/>samples = 2<br/>value = [[2, 0]<br/>[1, 1]<br/>[2, 0]<br/>[1, 1]<br/>[2, 0]<br/>[2, 0]<br/>[2, 0]]>, fillcolor="#e5813969"] ;
523 -> 524 ;
525 [label=<gini = 0.0<br/>samples = 1<br/>value = [[1, 0]<br/>[0, 1]<br/>[1, 0]<br/>[1, 0]<br/>[1, 0]<br/>[1, 0]<br/>[1, 0]]>, fillcolor="#e58139ff"] ;
524 -> 525 ;
526 [label=<gini = 0.0<br/>samples = 1<br/>value = [[1, 0]<br/>[1, 0]<br/>[1, 0]<br/>[0, 1]<br/>[1, 0]<br/>[1, 0]<br/>[1, 0]]>, fillcolor="#e58139ff"] ;
524 -> 526 ;
527 [label=<gini = 0.0<br/>samples = 2<br/>value = [[2, 0]<br/>[2, 0]<br/>[2, 0]<br/>[0, 2]<br/>[2, 0]<br/>[2, 0]<br/>[2, 0]]>, fillcolor="#e58139ff"] ;
523 -> 527 ;
